<?xml version="1.0"?>
<MethodSetup Method="DNN::DNN">
  <GeneralInfo>
    <Info name="TMVA Release" value="4.2.1 [262657]"/>
    <Info name="ROOT Release" value="6.12/07 [396295]"/>
    <Info name="Creator" value="addropul"/>
    <Info name="Date" value="Wed Feb 19 16:46:21 2020"/>
    <Info name="Host" value="Linux cmsbuild89.cern.ch 2.6.32-696.30.1.el6.x86_64 #1 SMP Tue May 22 06:09:36 CEST 2018 x86_64 x86_64 x86_64 GNU/Linux"/>
    <Info name="Dir" value="/afs/cern.ch/user/a/addropul/CMSSW_10_6_0_pre4/src/L1Trigger/Run3Ntuplizer/test/June_July_2019"/>
    <Info name="Training events" value="368224"/>
    <Info name="TrainingTime" value="1.00795099e+02"/>
    <Info name="AnalysisType" value="Classification"/>
  </GeneralInfo>
  <Options>
    <Option name="V" modified="Yes">True</Option>
    <Option name="VerbosityLevel" modified="No">Verbose</Option>
    <Option name="VarTransform" modified="Yes">G</Option>
    <Option name="H" modified="Yes">False</Option>
    <Option name="CreateMVAPdfs" modified="No">False</Option>
    <Option name="IgnoreNegWeightsInTraining" modified="No">False</Option>
    <Option name="Layout" modified="Yes">TANH|100,TANH|50,TANH|10,LINEAR</Option>
    <Option name="ValidationSize" modified="No">20%</Option>
    <Option name="ErrorStrategy" modified="Yes">CROSSENTROPY</Option>
    <Option name="WeightInitialization" modified="Yes">XAVIERUNIFORM</Option>
    <Option name="Architecture" modified="No">CPU</Option>
    <Option name="TrainingStrategy" modified="Yes">LearningRate=1e-3,Momentum=0.9,Repetitions=1,ConvergenceSteps=10,BatchSize=128,TestRepetitions=1,MaxEpochs=30,WeightDecay=1e-4,Regularization=None,Optimizer=ADAM,DropConfig=0.0+0.0+0.0+0.</Option>
  </Options>
  <Variables NVar="5">
    <Variable VarIndex="0" Expression="l1Pt_1" Label="l1Pt_1" Title="l1Pt_1" Unit="" Internal="l1Pt_1" Type="D" Min="5.50000000e+00" Max="5.11500000e+02"/>
    <Variable VarIndex="1" Expression="l1Pt_2" Label="l1Pt_2" Title="l1Pt_2" Unit="" Internal="l1Pt_2" Type="D" Min="5.50000000e+00" Max="5.11500000e+02"/>
    <Variable VarIndex="2" Expression="l1DeltaEta" Label="l1DeltaEta" Title="l1DeltaEta" Unit="" Internal="l1DeltaEta" Type="D" Min="-9.32750034e+00" Max="1.01850004e+01"/>
    <Variable VarIndex="3" Expression="l1DeltaPhi" Label="l1DeltaPhi" Title="l1DeltaPhi" Unit="" Internal="l1DeltaPhi" Type="D" Min="-6.19119978e+00" Max="6.19119978e+00"/>
    <Variable VarIndex="4" Expression="l1Mass" Label="l1Mass" Title="l1Mass" Unit="" Internal="l1Mass" Type="D" Min="6.71710211e-07" Max="7.86377637e+03"/>
  </Variables>
  <Spectators NSpec="0"/>
  <Classes NClass="2">
    <Class Name="Signal" Index="0"/>
    <Class Name="Background" Index="1"/>
  </Classes>
  <Transformations NTransformations="1">
    <Transform Name="Gauss" FlatOrGauss="Gauss">
      <Selection>
        <Input NInputs="5">
          <Input Type="Variable" Label="l1Pt_1" Expression="l1Pt_1"/>
          <Input Type="Variable" Label="l1Pt_2" Expression="l1Pt_2"/>
          <Input Type="Variable" Label="l1DeltaEta" Expression="l1DeltaEta"/>
          <Input Type="Variable" Label="l1DeltaPhi" Expression="l1DeltaPhi"/>
          <Input Type="Variable" Label="l1Mass" Expression="l1Mass"/>
        </Input>
        <Output NOutputs="5">
          <Output Type="Variable" Label="l1Pt_1" Expression="l1Pt_1"/>
          <Output Type="Variable" Label="l1Pt_2" Expression="l1Pt_2"/>
          <Output Type="Variable" Label="l1DeltaEta" Expression="l1DeltaEta"/>
          <Output Type="Variable" Label="l1DeltaPhi" Expression="l1DeltaPhi"/>
          <Output Type="Variable" Label="l1Mass" Expression="l1Mass"/>
        </Output>
      </Selection>
      <Variable VarIndex="0">
        <CumulativePDF_cls0>
          <PDF Name="GaussTransform var0 cls0" MinNSmooth="0" MaxNSmooth="0" InterpolMethod="1" KDE_type="0" KDE_iter="1" KDE_border="1" KDE_finefactor="0.0000000000000000e+00">
            <Histogram Name="Cumulative_Var0_cls0_original" NBins="437" XMin="5.4998998641967773e+00" XMax="5.1150000000000000e+02" HasEquidistantBins="0">
              1.60227195e-04 4.79306269e-04 8.89157818e-04 1.34439557e-03 1.84295664e-03 2.35429686e-03 2.85417587e-03 3.39508592e-03 4.03272826e-03 4.74790577e-03 5.54354023e-03 6.44370075e-03 7.40944780e-03 8.41272995e-03 9.49188601e-03 1.06853088e-02 1.19975563e-02 1.34334117e-02 1.49705270e-02 1.65870674e-02 1.82869900e-02 2.00618673e-02 2.19598375e-02 2.40235366e-02 2.62019038e-02 2.84390673e-02 3.07372622e-02 3.31152268e-02 3.55731323e-02 3.81154492e-02 4.07421775e-02 4.34839204e-02 4.63521928e-02 4.92878594e-02 5.22957295e-02 5.54590113e-02 5.87976500e-02 6.22676350e-02 6.58282191e-02 6.94902390e-02 7.32899606e-02 7.72189647e-02 8.12569633e-02 8.53781775e-02 8.95531103e-02 9.37697589e-02 9.80962068e-02 1.02638476e-01 1.07358642e-01 1.12131074e-01 1.16910383e-01 1.21714450e-01 1.26586601e-01 1.31548136e-01 1.36548877e-01 1.41568869e-01 1.46692008e-01 1.51963696e-01 1.57312050e-01 1.62681982e-01 1.68067381e-01 1.73489928e-01 1.78967133e-01 1.84479669e-01 1.90030381e-01 1.95622519e-01 2.01269656e-01 2.06996575e-01 2.12783664e-01 2.18611330e-01 2.24459276e-01 2.30307236e-01 2.36173749e-01 2.42077395e-01 2.47999609e-01 2.53921837e-01 2.59837598e-01 2.65738875e-01 2.71648169e-01 2.77632982e-01 2.83743173e-01 2.89945036e-01 2.96168685e-01 3.02382648e-01 3.08590949e-01 3.14799219e-01 3.21007520e-01 3.27171803e-01 3.33321631e-01 3.39460969e-01 3.45569730e-01 3.51715088e-01 3.57807845e-01 3.63807768e-01 3.69747370e-01 3.75619024e-01 3.81467998e-01 3.87304604e-01 3.93120587e-01 3.98926765e-01 4.04692888e-01 4.10376459e-01 4.16016757e-01 4.21655655e-01 4.27297115e-01 4.32936370e-01 4.38565969e-01 4.44168091e-01 4.49700743e-01 4.55145180e-01 4.60551322e-01 4.65954512e-01 4.71344292e-01 4.76722568e-01 4.82070923e-01 4.87393498e-01 4.92716074e-01 4.98021424e-01 5.03292441e-01 5.08546233e-01 5.13767004e-01 5.18909454e-01 5.23994088e-01 5.29041588e-01 5.33979535e-01 5.38744271e-01 5.43396652e-01 5.48082471e-01 5.52875817e-01 5.57698846e-01 5.62439620e-01 5.67063868e-01 5.71623206e-01 5.76134622e-01 5.80567300e-01 5.84936082e-01 5.89257419e-01 5.93546391e-01 5.97819626e-01 6.02080584e-01 6.06332302e-01 6.10558689e-01 6.14743888e-01 6.18882239e-01 6.22963607e-01 6.26976848e-01 6.30920589e-01 6.34836376e-01 6.38760746e-01 6.42680466e-01 6.46582305e-01 6.50429130e-01 6.54183805e-01 6.57880545e-01 6.61517799e-01 6.65071726e-01 6.68589830e-01 6.72107935e-01 6.75626040e-01 6.79154575e-01 6.82706535e-01 6.86267674e-01 6.89799368e-01 6.93231881e-01 6.96538031e-01 6.99785888e-01 7.03017354e-01 7.06230164e-01 7.09426463e-01 7.12596595e-01 7.15713143e-01 7.18761742e-01 7.21746981e-01 7.24661648e-01 7.27520287e-01 7.30361164e-01 7.33217657e-01 7.36102104e-01 7.38997161e-01 7.41889536e-01 7.44780481e-01 7.47650146e-01 7.50471652e-01 7.53237307e-01 7.55968869e-01 7.58662641e-01 7.61286497e-01 7.63871789e-01 7.66422868e-01 7.68923938e-01 7.71407783e-01 7.73873746e-01 7.76304007e-01 7.78716326e-01 7.81128705e-01 7.83494771e-01 7.85807073e-01 7.88114190e-01 7.90387511e-01 7.92607307e-01 7.94789970e-01 7.96932042e-01 7.99033582e-01 8.01117003e-01 8.03206325e-01 8.05299640e-01 8.07379127e-01 8.09431136e-01 8.11469555e-01 8.13507676e-01 8.15518379e-01 8.17475677e-01 8.19389999e-01 8.21272135e-01 8.23137105e-01 8.24999332e-01 8.26855302e-01 8.28701735e-01 8.30539167e-01 8.32368374e-01 8.34181786e-01 8.35966289e-01 8.37726295e-01 8.39458048e-01 8.41141582e-01 8.42788994e-01 8.44442368e-01 8.46125603e-01 8.47818017e-01 8.49490404e-01 8.51120114e-01 8.52692604e-01 8.54219437e-01 8.55724216e-01 8.57223332e-01 8.58722448e-01 8.60224307e-01 8.61746192e-01 8.63305092e-01 8.64888549e-01 8.66475880e-01 8.68030846e-01 8.69509339e-01 8.70931447e-01 8.72364581e-01 8.73839617e-01 8.75331581e-01 8.76808941e-01 8.78236234e-01 8.79595518e-01 8.80921364e-01 8.82241666e-01 8.83560956e-01 8.84882331e-01 8.86221230e-01 8.87596548e-01 8.88985693e-01 8.90340567e-01 8.91640067e-01 8.92903328e-01 8.94152105e-01 8.95360172e-01 8.96501362e-01 8.97610247e-01 8.98719132e-01 8.99828136e-01 9.00926352e-01 9.02003944e-01 9.03071225e-01 9.04127300e-01 9.05160308e-01 9.06175196e-01 9.07171071e-01 9.08146679e-01 9.09116626e-01 9.10090685e-01 9.11050916e-01 9.11975086e-01 9.12873983e-01 9.13759649e-01 9.14633036e-01 9.15500343e-01 9.16365266e-01 9.17224824e-01 9.18076158e-01 9.18923378e-01 9.19770598e-01 9.20615733e-01 9.21461403e-01 9.22320247e-01 9.23196733e-01 9.24078107e-01 9.24910247e-01 9.25652266e-01 9.26350951e-01 9.27040637e-01 9.27709222e-01 9.28361654e-01 9.29010808e-01 9.29665506e-01 9.30334687e-01 9.31021929e-01 9.31717396e-01 9.32404339e-01 9.33076322e-01 9.33735847e-01 9.34372723e-01 9.34977889e-01 9.35561299e-01 9.36149538e-01 9.36762154e-01 9.37381029e-01 9.37968671e-01 9.38513994e-01 9.39042449e-01 9.39577222e-01 9.40120995e-01 9.40668404e-01 9.41223025e-01 9.41795290e-01 9.42380607e-01 9.42963064e-01 9.43524837e-01 9.44060802e-01 9.44586158e-01 9.45092320e-01 9.45559919e-01 9.46008265e-01 9.46456671e-01 9.46905017e-01 9.47353363e-01 9.47806597e-01 9.48271632e-01 9.48746562e-01 9.49225187e-01 9.49702144e-01 9.50160623e-01 9.50589657e-01 9.51006770e-01 9.51426506e-01 9.51847374e-01 9.52268243e-01 9.52689052e-01 9.53109920e-01 9.53562438e-01 9.54078197e-01 9.54625547e-01 9.55172956e-01 9.55720305e-01 9.56267715e-01 9.56815124e-01 9.57362473e-01 9.57911253e-01 9.58462775e-01 9.59015667e-01 9.59568560e-01 9.60120738e-01 9.60671544e-01 9.61213470e-01 9.61738825e-01 9.62255955e-01 9.62773085e-01 9.63290215e-01 9.63807344e-01 9.64321792e-01 9.64830399e-01 9.65325296e-01 9.65799510e-01 9.66261983e-01 9.66720998e-01 9.67180014e-01 9.67642486e-01 9.68128145e-01 9.68656778e-01 9.69206929e-01 9.69757080e-01 9.70301688e-01 9.70835328e-01 9.71363485e-01 9.71888125e-01 9.72405970e-01 9.72920358e-01 9.73427534e-01 9.73917246e-01 9.74395871e-01 9.74884570e-01 9.75392282e-01 9.75906491e-01 9.76416349e-01 9.76922929e-01 9.77433681e-01 9.77955341e-01 9.78484213e-01 9.79010642e-01 9.79530692e-01 9.80047822e-01 9.80562210e-01 9.81066227e-01 9.81557965e-01 9.82044816e-01 9.82531667e-01 9.83016968e-01 9.83506024e-01 9.84009802e-01 9.84524190e-01 9.85032141e-01 9.85526860e-01 9.86015677e-01 9.86506045e-01 9.86999571e-01 9.87500548e-01 9.88013208e-01 9.88531709e-01 9.89050210e-01 9.89564598e-01 9.90068913e-01 9.90566611e-01 9.91067708e-01 9.91575062e-01 9.92082834e-01 9.92587447e-01 9.93090808e-01 9.93594170e-01 9.94100869e-01 9.94615734e-01 9.95137274e-01 9.95659530e-01 9.96176898e-01 9.96688187e-01 9.97197032e-01 9.97705936e-01 9.98215318e-01 9.98725891e-01 9.99238729e-01 9.99700189e-01 9.99983490e-01 1.00000000e+00 
            </Histogram>
            <HistogramBinning NBins="437">
              5.49989986e+00 5.50000000e+00 7.00000000e+00 8.00000000e+00 9.00000000e+00 9.50000000e+00 1.05000000e+01 1.10000000e+01 1.15000000e+01 1.20000000e+01 1.25000000e+01 1.30000000e+01 1.35000000e+01 1.40000000e+01 1.45000000e+01 1.50000000e+01 1.55000000e+01 1.60000000e+01 1.65000000e+01 1.70000000e+01 1.75000000e+01 1.80000000e+01 1.85000000e+01 1.90000000e+01 1.95000000e+01 2.00000000e+01 2.05000000e+01 2.10000000e+01 2.15000000e+01 2.20000000e+01 2.25000000e+01 2.30000000e+01 2.35000000e+01 2.40000000e+01 2.45000000e+01 2.50000000e+01 2.55000000e+01 2.60000000e+01 2.65000000e+01 2.70000000e+01 2.75000000e+01 2.80000000e+01 2.85000000e+01 2.90000000e+01 2.95000000e+01 3.00000000e+01 3.05000000e+01 3.10000000e+01 3.15000000e+01 3.20000000e+01 3.25000000e+01 3.30000000e+01 3.35000000e+01 3.40000000e+01 3.45000000e+01 3.50000000e+01 3.55000000e+01 3.60000000e+01 3.65000000e+01 3.70000000e+01 3.75000000e+01 3.80000000e+01 3.85000000e+01 3.90000000e+01 3.95000000e+01 4.00000000e+01 4.05000000e+01 4.10000000e+01 4.15000000e+01 4.20000000e+01 4.25000000e+01 4.30000000e+01 4.35000000e+01 4.40000000e+01 4.45000000e+01 4.50000000e+01 4.55000000e+01 4.60000000e+01 4.65000000e+01 4.70000000e+01 4.75000000e+01 4.80000000e+01 4.85000000e+01 4.90000000e+01 4.95000000e+01 5.00000000e+01 5.05000000e+01 5.10000000e+01 5.15000000e+01 5.20000000e+01 5.25000000e+01 5.30000000e+01 5.35000000e+01 5.40000000e+01 5.45000000e+01 5.50000000e+01 5.55000000e+01 5.60000000e+01 5.65000000e+01 5.70000000e+01 5.75000000e+01 5.80000000e+01 5.85000000e+01 5.90000000e+01 5.95000000e+01 6.00000000e+01 6.05000000e+01 6.10000000e+01 6.15000000e+01 6.20000000e+01 6.25000000e+01 6.30000000e+01 6.35000000e+01 6.40000000e+01 6.45000000e+01 6.50000000e+01 6.55000000e+01 6.60000000e+01 6.65000000e+01 6.70000000e+01 6.75000000e+01 6.80000000e+01 6.85000000e+01 6.90000000e+01 6.95000000e+01 7.00000000e+01 7.05000000e+01 7.10000000e+01 7.15000000e+01 7.20000000e+01 7.25000000e+01 7.30000000e+01 7.35000000e+01 7.40000000e+01 7.45000000e+01 7.50000000e+01 7.55000000e+01 7.60000000e+01 7.65000000e+01 7.70000000e+01 7.75000000e+01 7.80000000e+01 7.85000000e+01 7.90000000e+01 7.95000000e+01 8.00000000e+01 8.05000000e+01 8.10000000e+01 8.15000000e+01 8.20000000e+01 8.25000000e+01 8.30000000e+01 8.35000000e+01 8.40000000e+01 8.45000000e+01 8.50000000e+01 8.55000000e+01 8.60000000e+01 8.65000000e+01 8.70000000e+01 8.75000000e+01 8.80000000e+01 8.85000000e+01 8.90000000e+01 8.95000000e+01 9.00000000e+01 9.05000000e+01 9.10000000e+01 9.15000000e+01 9.20000000e+01 9.25000000e+01 9.30000000e+01 9.35000000e+01 9.40000000e+01 9.45000000e+01 9.50000000e+01 9.55000000e+01 9.60000000e+01 9.65000000e+01 9.70000000e+01 9.75000000e+01 9.80000000e+01 9.85000000e+01 9.90000000e+01 9.95000000e+01 1.00000000e+02 1.00500000e+02 1.01000000e+02 1.01500000e+02 1.02000000e+02 1.02500000e+02 1.03000000e+02 1.03500000e+02 1.04000000e+02 1.04500000e+02 1.05000000e+02 1.05500000e+02 1.06000000e+02 1.06500000e+02 1.07000000e+02 1.07500000e+02 1.08000000e+02 1.08500000e+02 1.09000000e+02 1.09500000e+02 1.10000000e+02 1.10500000e+02 1.11000000e+02 1.11500000e+02 1.12000000e+02 1.12500000e+02 1.13000000e+02 1.13500000e+02 1.14000000e+02 1.14500000e+02 1.15000000e+02 1.15500000e+02 1.16000000e+02 1.16500000e+02 1.17000000e+02 1.17500000e+02 1.18000000e+02 1.18500000e+02 1.19000000e+02 1.19500000e+02 1.20000000e+02 1.20500000e+02 1.21000000e+02 1.21500000e+02 1.22000000e+02 1.22500000e+02 1.23000000e+02 1.23500000e+02 1.24000000e+02 1.24500000e+02 1.25000000e+02 1.25500000e+02 1.26000000e+02 1.26500000e+02 1.27000000e+02 1.27500000e+02 1.28000000e+02 1.28500000e+02 1.29000000e+02 1.29500000e+02 1.30000000e+02 1.30500000e+02 1.31000000e+02 1.31500000e+02 1.32000000e+02 1.32500000e+02 1.33000000e+02 1.33500000e+02 1.34000000e+02 1.34500000e+02 1.35000000e+02 1.35500000e+02 1.36000000e+02 1.36500000e+02 1.37000000e+02 1.37500000e+02 1.38000000e+02 1.38500000e+02 1.39000000e+02 1.39500000e+02 1.40000000e+02 1.40500000e+02 1.41000000e+02 1.41500000e+02 1.42000000e+02 1.42500000e+02 1.43000000e+02 1.43500000e+02 1.44000000e+02 1.44500000e+02 1.45000000e+02 1.45500000e+02 1.46000000e+02 1.46500000e+02 1.47000000e+02 1.47500000e+02 1.48000000e+02 1.48500000e+02 1.49000000e+02 1.49500000e+02 1.50000000e+02 1.50500000e+02 1.51000000e+02 1.51500000e+02 1.52000000e+02 1.52500000e+02 1.53000000e+02 1.53500000e+02 1.54000000e+02 1.54500000e+02 1.55000000e+02 1.55500000e+02 1.56000000e+02 1.56500000e+02 1.57000000e+02 1.57500000e+02 1.58000000e+02 1.58500000e+02 1.59000000e+02 1.59500000e+02 1.60000000e+02 1.60500000e+02 1.61000000e+02 1.61500000e+02 1.62000000e+02 1.62500000e+02 1.63000000e+02 1.63500000e+02 1.64000000e+02 1.64500000e+02 1.65000000e+02 1.65500000e+02 1.66000000e+02 1.66500000e+02 1.67000000e+02 1.67500000e+02 1.68000000e+02 1.68500000e+02 1.69000000e+02 1.69500000e+02 1.70000000e+02 1.70500000e+02 1.71000000e+02 1.71500000e+02 1.72000000e+02 1.72500000e+02 1.73000000e+02 1.73500000e+02 1.74000000e+02 1.74500000e+02 1.75000000e+02 1.75500000e+02 1.76500000e+02 1.77000000e+02 1.77500000e+02 1.78500000e+02 1.79000000e+02 1.79500000e+02 1.80500000e+02 1.81000000e+02 1.82000000e+02 1.82500000e+02 1.83500000e+02 1.84000000e+02 1.85000000e+02 1.86000000e+02 1.86500000e+02 1.87500000e+02 1.88000000e+02 1.89000000e+02 1.89500000e+02 1.90500000e+02 1.91500000e+02 1.92000000e+02 1.93000000e+02 1.94000000e+02 1.95000000e+02 1.96000000e+02 1.97000000e+02 1.98000000e+02 1.98500000e+02 2.00000000e+02 2.01000000e+02 2.02000000e+02 2.03000000e+02 2.04000000e+02 2.05000000e+02 2.06000000e+02 2.07000000e+02 2.08500000e+02 2.10000000e+02 2.11500000e+02 2.12500000e+02 2.14000000e+02 2.15500000e+02 2.16500000e+02 2.18500000e+02 2.20000000e+02 2.21500000e+02 2.23500000e+02 2.25000000e+02 2.26500000e+02 2.28500000e+02 2.30500000e+02 2.32500000e+02 2.34500000e+02 2.36500000e+02 2.38500000e+02 2.41000000e+02 2.43000000e+02 2.46000000e+02 2.49000000e+02 2.52000000e+02 2.55000000e+02 2.57000000e+02 2.59500000e+02 2.61500000e+02 2.63500000e+02 2.65500000e+02 2.67500000e+02 2.69500000e+02 2.72000000e+02 2.74000000e+02 2.76000000e+02 2.78500000e+02 2.81000000e+02 2.83500000e+02 2.86500000e+02 2.89500000e+02 2.92500000e+02 2.95500000e+02 2.98500000e+02 3.02000000e+02 3.05500000e+02 3.09500000e+02 3.14000000e+02 3.18000000e+02 3.23000000e+02 3.28500000e+02 3.33500000e+02 3.38500000e+02 3.45000000e+02 3.53000000e+02 3.60000000e+02 3.67000000e+02 3.76000000e+02 3.86500000e+02 4.00000000e+02 4.14500000e+02 4.36500000e+02 4.68000000e+02 5.11500000e+02 5.11500000e+02 
            </HistogramBinning>
          </PDF>
        </CumulativePDF_cls0>
        <CumulativePDF_cls1>
          <PDF Name="GaussTransform var0 cls1" MinNSmooth="0" MaxNSmooth="0" InterpolMethod="1" KDE_type="0" KDE_iter="1" KDE_border="1" KDE_finefactor="0.0000000000000000e+00">
            <Histogram Name="Cumulative_Var0_cls1_original" NBins="153" XMin="5.4998998641967773e+00" XMax="2.3600000000000000e+02" HasEquidistantBins="0">
              0.00000000e+00 1.15932233e-03 3.39632481e-03 6.20482396e-03 9.79709066e-03 1.50222071e-02 2.16842312e-02 2.95219049e-02 3.88128161e-02 4.89201508e-02 5.91091290e-02 6.92981109e-02 8.04014802e-02 9.36602131e-02 1.08486474e-01 1.23639300e-01 1.38743147e-01 1.53749019e-01 1.68901846e-01 1.84446558e-01 2.00394049e-01 2.17408314e-01 2.36044556e-01 2.55116224e-01 2.72484273e-01 2.87533671e-01 3.01641494e-01 3.15749288e-01 3.29857111e-01 3.43964934e-01 3.58072728e-01 3.71871650e-01 3.84851456e-01 3.96895051e-01 4.08247441e-01 4.19315457e-01 4.30549443e-01 4.42131788e-01 4.53855634e-01 4.65535969e-01 4.77031201e-01 4.88156348e-01 4.99066502e-01 5.10591686e-01 5.23393214e-01 5.36456048e-01 5.47690034e-01 5.56507409e-01 5.64345121e-01 5.72182775e-01 5.80167413e-01 5.88445961e-01 5.96871436e-01 6.05296969e-01 6.13648951e-01 6.21728837e-01 6.29452705e-01 6.37047708e-01 6.44885838e-01 6.53124928e-01 6.61593974e-01 6.70106530e-01 6.78444922e-01 6.86301649e-01 6.93712115e-01 7.00817704e-01 7.07585871e-01 7.14182556e-01 7.20713973e-01 7.26771832e-01 7.32078612e-01 7.37042427e-01 7.42006302e-01 7.46970177e-01 7.51934052e-01 7.56897867e-01 7.61861742e-01 7.66825616e-01 7.71789491e-01 7.77049959e-01 7.83040702e-01 7.89579391e-01 7.96027303e-01 8.02087903e-01 8.07835519e-01 8.13011646e-01 8.17349613e-01 8.21208537e-01 8.24828029e-01 8.28126371e-01 8.31196129e-01 8.34135294e-01 8.37009072e-01 8.39882910e-01 8.42756689e-01 8.45630527e-01 8.48504305e-01 8.50994408e-01 8.52651775e-01 8.53958070e-01 8.55917454e-01 8.58998120e-01 8.62865210e-01 8.66737783e-01 8.69938195e-01 8.72485459e-01 8.74836743e-01 8.77188027e-01 8.79539311e-01 8.82021248e-01 8.84764433e-01 8.87638271e-01 8.90512049e-01 8.93385887e-01 8.96194398e-01 8.98872256e-01 9.01484847e-01 9.04097378e-01 9.06709909e-01 9.09322500e-01 9.12000358e-01 9.14808869e-01 9.17682648e-01 9.20556486e-01 9.23430324e-01 9.26304102e-01 9.29314017e-01 9.32617784e-01 9.36014116e-01 9.39062119e-01 9.41554904e-01 9.43737507e-01 9.46083367e-01 9.48793888e-01 9.51667666e-01 9.54541504e-01 9.57415342e-01 9.60289121e-01 9.63162959e-01 9.65971470e-01 9.68649328e-01 9.71261859e-01 9.73874450e-01 9.76486981e-01 9.79099512e-01 9.81712103e-01 9.84324634e-01 9.86937225e-01 9.89549756e-01 9.92162347e-01 9.94774878e-01 9.97387469e-01 1.00000000e+00 
            </Histogram>
            <HistogramBinning NBins="153">
              5.49989986e+00 5.50000000e+00 6.00000000e+00 7.00000000e+00 7.50000000e+00 8.00000000e+00 8.50000000e+00 9.00000000e+00 9.50000000e+00 1.00000000e+01 1.05000000e+01 1.10000000e+01 1.15000000e+01 1.20000000e+01 1.25000000e+01 1.30000000e+01 1.35000000e+01 1.40000000e+01 1.45000000e+01 1.50000000e+01 1.55000000e+01 1.60000000e+01 1.65000000e+01 1.70000000e+01 1.75000000e+01 1.80000000e+01 1.85000000e+01 1.90000000e+01 1.95000000e+01 2.00000000e+01 2.05000000e+01 2.10000000e+01 2.15000000e+01 2.20000000e+01 2.25000000e+01 2.30000000e+01 2.35000000e+01 2.40000000e+01 2.45000000e+01 2.50000000e+01 2.55000000e+01 2.60000000e+01 2.65000000e+01 2.70000000e+01 2.75000000e+01 2.80000000e+01 2.85000000e+01 2.90000000e+01 2.95000000e+01 3.00000000e+01 3.05000000e+01 3.10000000e+01 3.15000000e+01 3.20000000e+01 3.25000000e+01 3.30000000e+01 3.35000000e+01 3.40000000e+01 3.45000000e+01 3.50000000e+01 3.55000000e+01 3.60000000e+01 3.65000000e+01 3.70000000e+01 3.75000000e+01 3.80000000e+01 3.85000000e+01 3.90000000e+01 3.95000000e+01 4.00000000e+01 4.05000000e+01 4.10000000e+01 4.15000000e+01 4.20000000e+01 4.25000000e+01 4.30000000e+01 4.35000000e+01 4.40000000e+01 4.45000000e+01 4.50000000e+01 4.55000000e+01 4.60000000e+01 4.65000000e+01 4.70000000e+01 4.75000000e+01 4.80000000e+01 4.85000000e+01 4.90000000e+01 4.95000000e+01 5.00000000e+01 5.05000000e+01 5.10000000e+01 5.15000000e+01 5.20000000e+01 5.25000000e+01 5.30000000e+01 5.35000000e+01 5.40000000e+01 5.45000000e+01 5.50000000e+01 5.55000000e+01 5.60000000e+01 5.65000000e+01 5.70000000e+01 5.75000000e+01 5.80000000e+01 5.85000000e+01 5.90000000e+01 5.95000000e+01 6.00000000e+01 6.05000000e+01 6.15000000e+01 6.20000000e+01 6.30000000e+01 6.40000000e+01 6.45000000e+01 6.50000000e+01 6.55000000e+01 6.65000000e+01 6.70000000e+01 6.75000000e+01 6.80000000e+01 6.90000000e+01 6.95000000e+01 7.00000000e+01 7.05000000e+01 7.15000000e+01 7.25000000e+01 7.30000000e+01 7.40000000e+01 7.60000000e+01 7.65000000e+01 7.70000000e+01 7.75000000e+01 7.90000000e+01 8.05000000e+01 8.10000000e+01 8.20000000e+01 8.40000000e+01 8.50000000e+01 8.60000000e+01 8.85000000e+01 9.00000000e+01 9.30000000e+01 9.60000000e+01 9.85000000e+01 1.02500000e+02 1.05500000e+02 1.10500000e+02 1.16500000e+02 1.23000000e+02 1.33500000e+02 1.58500000e+02 2.36000000e+02 
            </HistogramBinning>
          </PDF>
        </CumulativePDF_cls1>
        <CumulativePDF_cls2>
          <PDF Name="GaussTransform var0 cls2" MinNSmooth="0" MaxNSmooth="0" InterpolMethod="1" KDE_type="0" KDE_iter="1" KDE_border="1" KDE_finefactor="0.0000000000000000e+00">
            <Histogram Name="Cumulative_Var0_cls2_original" NBins="373" XMin="5.4998998641967773e+00" XMax="5.1150000000000000e+02" HasEquidistantBins="0">
              5.65185153e-04 1.13037031e-03 1.76568411e-03 2.71300576e-03 4.10140213e-03 6.02336042e-03 8.78002122e-03 1.22762369e-02 1.63935665e-02 2.12779194e-02 2.65964177e-02 3.19639444e-02 3.73314694e-02 4.31850441e-02 5.01988605e-02 5.80749959e-02 6.61392733e-02 7.41811395e-02 8.21903273e-02 9.03259441e-02 9.87228528e-02 1.07333958e-01 1.16430528e-01 1.26303032e-01 1.36470854e-01 1.46004289e-01 1.54365405e-01 1.61894515e-01 1.69611335e-01 1.78099766e-01 1.86794639e-01 1.95153162e-01 2.03219339e-01 2.10965917e-01 2.18305901e-01 2.25253537e-01 2.32036233e-01 2.39048690e-01 2.46481851e-01 2.54165649e-01 2.61819422e-01 2.69247204e-01 2.76431054e-01 2.83573836e-01 2.91163981e-01 2.99573779e-01 3.08282852e-01 3.16180736e-01 3.22776586e-01 3.28654945e-01 3.34740669e-01 3.41437250e-01 3.48355681e-01 3.55031669e-01 3.61475199e-01 3.67850214e-01 3.74164790e-01 3.80357832e-01 3.86535913e-01 3.92901927e-01 3.99586052e-01 4.06550735e-01 4.13605392e-01 4.20513242e-01 4.27141041e-01 4.33574289e-01 4.39883590e-01 4.46034640e-01 4.52104330e-01 4.58149999e-01 4.63998646e-01 4.69525039e-01 4.74902362e-01 4.80279684e-01 4.85692322e-01 4.91175592e-01 4.96694207e-01 5.02212822e-01 5.07731438e-01 5.13250053e-01 5.18900275e-01 5.24877608e-01 5.31110108e-01 5.37326336e-01 5.43394625e-01 5.49346447e-01 5.55049419e-01 5.60348213e-01 5.65409005e-01 5.70336223e-01 5.75058162e-01 5.79655945e-01 5.84235430e-01 5.88808715e-01 5.93354762e-01 5.97851098e-01 6.02293849e-01 6.06679320e-01 6.10938251e-01 6.14981115e-01 6.18943155e-01 6.23135209e-01 6.27655208e-01 6.32310450e-01 6.36965692e-01 6.41458809e-01 6.45627558e-01 6.49634182e-01 6.53640747e-01 6.57647371e-01 6.61601305e-01 6.65449917e-01 6.69209361e-01 6.72895730e-01 6.76545620e-01 6.80195510e-01 6.83845401e-01 6.87481463e-01 6.91089809e-01 6.94684267e-01 6.98278725e-01 7.01873243e-01 7.05467701e-01 7.09096611e-01 7.12794363e-01 7.16578543e-01 7.20466793e-01 7.24356651e-01 7.28145480e-01 7.31787920e-01 7.35167325e-01 7.38308191e-01 7.41364777e-01 7.44372249e-01 7.47320116e-01 7.50221193e-01 7.53100634e-01 7.56009459e-01 7.58926034e-01 7.61756182e-01 7.64474452e-01 7.67294824e-01 7.70447016e-01 7.73748517e-01 7.76866436e-01 7.79718101e-01 7.82399893e-01 7.85044134e-01 7.87714779e-01 7.90397048e-01 7.93087482e-01 7.95766532e-01 7.98377573e-01 8.00909162e-01 8.03405464e-01 8.05802286e-01 8.07968259e-01 8.09964836e-01 8.11990678e-01 8.14130366e-01 8.16312492e-01 8.18479836e-01 8.20622802e-01 8.22730243e-01 8.24819982e-01 8.26908231e-01 8.28980088e-01 8.31023693e-01 8.33053827e-01 8.35035384e-01 8.36919844e-01 8.38755727e-01 8.40591550e-01 8.42427433e-01 8.44263315e-01 8.46054494e-01 8.47753882e-01 8.49382639e-01 8.50966752e-01 8.52529705e-01 8.54092658e-01 8.55680645e-01 8.57318699e-01 8.59021127e-01 8.60802352e-01 8.62592578e-01 8.64321947e-01 8.66008043e-01 8.67619514e-01 8.69099915e-01 8.70489419e-01 8.71892452e-01 8.73366892e-01 8.74877572e-01 8.76388252e-01 8.77898633e-01 8.79408538e-01 8.80918145e-01 8.82427752e-01 8.83937359e-01 8.85446966e-01 8.86917293e-01 8.88286829e-01 8.89564097e-01 8.90800476e-01 8.92025411e-01 8.93248975e-01 8.94466221e-01 8.95660162e-01 8.96826506e-01 8.97982180e-01 8.99137855e-01 9.00261283e-01 9.01320040e-01 9.02339697e-01 9.03345525e-01 9.04377460e-01 9.05487537e-01 9.06645954e-01 9.07772660e-01 9.08837855e-01 9.09862459e-01 9.10858512e-01 9.11840260e-01 9.12822008e-01 9.13772345e-01 9.14659977e-01 9.15542543e-01 9.16477919e-01 9.17439640e-01 9.18401361e-01 9.19363141e-01 9.20299172e-01 9.21183765e-01 9.22029614e-01 9.22833920e-01 9.23590124e-01 9.24331069e-01 9.25113738e-01 9.25971627e-01 9.26872313e-01 9.27759886e-01 9.28605318e-01 9.29417253e-01 9.30219471e-01 9.31020379e-01 9.31803942e-01 9.32548523e-01 9.33264732e-01 9.33986485e-01 9.34730232e-01 9.35483813e-01 9.36225712e-01 9.36937690e-01 9.37622130e-01 9.38315392e-01 9.39058721e-01 9.39852834e-01 9.40655291e-01 9.41419542e-01 9.42136884e-01 9.42835093e-01 9.43531871e-01 9.44214582e-01 9.44865942e-01 9.45493996e-01 9.46111321e-01 9.46708798e-01 9.47283268e-01 9.47849452e-01 9.48414266e-01 9.48971868e-01 9.49516296e-01 9.50053751e-01 9.50607836e-01 9.51194465e-01 9.51791704e-01 9.52355027e-01 9.52870607e-01 9.53364611e-01 9.53854859e-01 9.54334855e-01 9.54798222e-01 9.55252647e-01 9.55704212e-01 9.56150830e-01 9.56593275e-01 9.57033098e-01 9.57470179e-01 9.57905471e-01 9.58340108e-01 9.58774745e-01 9.59209740e-01 9.59645748e-01 9.60083842e-01 9.60523009e-01 9.60962176e-01 9.61401284e-01 9.61840451e-01 9.62356687e-01 9.62908566e-01 9.63379145e-01 9.63803232e-01 9.64220524e-01 9.64723587e-01 9.65312362e-01 9.65901077e-01 9.66492295e-01 9.67089117e-01 9.67679799e-01 9.68243778e-01 9.68782961e-01 9.69314933e-01 9.69846904e-01 9.70378876e-01 9.70904529e-01 9.71420169e-01 9.71934319e-01 9.72469032e-01 9.73048508e-01 9.73662555e-01 9.74273264e-01 9.74842429e-01 9.75361168e-01 9.75859880e-01 9.76358593e-01 9.76863384e-01 9.77380991e-01 9.77903068e-01 9.78410065e-01 9.78892207e-01 9.79364574e-01 9.79856193e-01 9.80382681e-01 9.80931640e-01 9.81474102e-01 9.81995106e-01 9.82504904e-01 9.83013988e-01 9.83511508e-01 9.83985782e-01 9.84448493e-01 9.84911203e-01 9.85373855e-01 9.85836565e-01 9.86310661e-01 9.86807644e-01 9.87316072e-01 9.87824440e-01 9.88331497e-01 9.88835752e-01 9.89338577e-01 9.89841461e-01 9.90344346e-01 9.90847170e-01 9.91350055e-01 9.91853595e-01 9.92357135e-01 9.92863119e-01 9.93378639e-01 9.93902326e-01 9.94424582e-01 9.94939566e-01 9.95448828e-01 9.95957077e-01 9.96464550e-01 9.96969879e-01 9.97473896e-01 9.97979283e-01 9.98487473e-01 9.98996377e-01 9.99501586e-01 1.00000000e+00 
            </Histogram>
            <HistogramBinning NBins="373">
              5.49989986e+00 5.50000000e+00 6.00000000e+00 6.50000000e+00 7.00000000e+00 7.50000000e+00 8.00000000e+00 8.50000000e+00 9.00000000e+00 9.50000000e+00 1.00000000e+01 1.05000000e+01 1.10000000e+01 1.15000000e+01 1.20000000e+01 1.25000000e+01 1.30000000e+01 1.35000000e+01 1.40000000e+01 1.45000000e+01 1.50000000e+01 1.55000000e+01 1.60000000e+01 1.65000000e+01 1.70000000e+01 1.75000000e+01 1.80000000e+01 1.85000000e+01 1.90000000e+01 1.95000000e+01 2.00000000e+01 2.05000000e+01 2.10000000e+01 2.15000000e+01 2.20000000e+01 2.25000000e+01 2.30000000e+01 2.35000000e+01 2.40000000e+01 2.45000000e+01 2.50000000e+01 2.55000000e+01 2.60000000e+01 2.65000000e+01 2.70000000e+01 2.75000000e+01 2.80000000e+01 2.85000000e+01 2.90000000e+01 2.95000000e+01 3.00000000e+01 3.05000000e+01 3.10000000e+01 3.15000000e+01 3.20000000e+01 3.25000000e+01 3.30000000e+01 3.35000000e+01 3.40000000e+01 3.45000000e+01 3.50000000e+01 3.55000000e+01 3.60000000e+01 3.65000000e+01 3.70000000e+01 3.75000000e+01 3.80000000e+01 3.85000000e+01 3.90000000e+01 3.95000000e+01 4.00000000e+01 4.05000000e+01 4.10000000e+01 4.15000000e+01 4.20000000e+01 4.25000000e+01 4.30000000e+01 4.35000000e+01 4.40000000e+01 4.45000000e+01 4.50000000e+01 4.55000000e+01 4.60000000e+01 4.65000000e+01 4.70000000e+01 4.75000000e+01 4.80000000e+01 4.85000000e+01 4.90000000e+01 4.95000000e+01 5.00000000e+01 5.05000000e+01 5.10000000e+01 5.15000000e+01 5.20000000e+01 5.25000000e+01 5.30000000e+01 5.35000000e+01 5.40000000e+01 5.45000000e+01 5.50000000e+01 5.55000000e+01 5.60000000e+01 5.65000000e+01 5.70000000e+01 5.75000000e+01 5.80000000e+01 5.85000000e+01 5.90000000e+01 5.95000000e+01 6.00000000e+01 6.05000000e+01 6.10000000e+01 6.15000000e+01 6.20000000e+01 6.25000000e+01 6.30000000e+01 6.35000000e+01 6.40000000e+01 6.45000000e+01 6.50000000e+01 6.55000000e+01 6.60000000e+01 6.65000000e+01 6.70000000e+01 6.75000000e+01 6.80000000e+01 6.85000000e+01 6.90000000e+01 6.95000000e+01 7.00000000e+01 7.05000000e+01 7.10000000e+01 7.15000000e+01 7.20000000e+01 7.25000000e+01 7.30000000e+01 7.35000000e+01 7.40000000e+01 7.45000000e+01 7.50000000e+01 7.55000000e+01 7.60000000e+01 7.65000000e+01 7.70000000e+01 7.75000000e+01 7.80000000e+01 7.85000000e+01 7.90000000e+01 7.95000000e+01 8.00000000e+01 8.05000000e+01 8.10000000e+01 8.15000000e+01 8.20000000e+01 8.25000000e+01 8.30000000e+01 8.35000000e+01 8.40000000e+01 8.45000000e+01 8.50000000e+01 8.55000000e+01 8.60000000e+01 8.65000000e+01 8.70000000e+01 8.75000000e+01 8.80000000e+01 8.85000000e+01 8.90000000e+01 8.95000000e+01 9.00000000e+01 9.05000000e+01 9.10000000e+01 9.15000000e+01 9.20000000e+01 9.25000000e+01 9.30000000e+01 9.35000000e+01 9.40000000e+01 9.45000000e+01 9.50000000e+01 9.55000000e+01 9.60000000e+01 9.65000000e+01 9.70000000e+01 9.75000000e+01 9.80000000e+01 9.85000000e+01 9.90000000e+01 9.95000000e+01 1.00000000e+02 1.00500000e+02 1.01000000e+02 1.01500000e+02 1.02000000e+02 1.02500000e+02 1.03000000e+02 1.03500000e+02 1.04000000e+02 1.04500000e+02 1.05000000e+02 1.05500000e+02 1.06000000e+02 1.06500000e+02 1.07000000e+02 1.07500000e+02 1.08000000e+02 1.08500000e+02 1.09000000e+02 1.09500000e+02 1.10000000e+02 1.10500000e+02 1.11000000e+02 1.11500000e+02 1.12000000e+02 1.12500000e+02 1.13000000e+02 1.13500000e+02 1.14000000e+02 1.14500000e+02 1.15000000e+02 1.15500000e+02 1.16000000e+02 1.16500000e+02 1.17000000e+02 1.17500000e+02 1.18000000e+02 1.18500000e+02 1.19000000e+02 1.19500000e+02 1.20000000e+02 1.20500000e+02 1.21000000e+02 1.21500000e+02 1.22000000e+02 1.22500000e+02 1.23000000e+02 1.23500000e+02 1.24000000e+02 1.24500000e+02 1.25000000e+02 1.25500000e+02 1.26000000e+02 1.26500000e+02 1.27000000e+02 1.27500000e+02 1.28000000e+02 1.28500000e+02 1.29000000e+02 1.29500000e+02 1.30000000e+02 1.30500000e+02 1.31000000e+02 1.31500000e+02 1.32000000e+02 1.32500000e+02 1.33000000e+02 1.33500000e+02 1.34000000e+02 1.34500000e+02 1.35000000e+02 1.35500000e+02 1.36000000e+02 1.36500000e+02 1.37000000e+02 1.37500000e+02 1.38000000e+02 1.38500000e+02 1.39000000e+02 1.39500000e+02 1.40000000e+02 1.40500000e+02 1.41000000e+02 1.41500000e+02 1.42000000e+02 1.42500000e+02 1.43000000e+02 1.43500000e+02 1.44000000e+02 1.44500000e+02 1.45000000e+02 1.45500000e+02 1.46000000e+02 1.46500000e+02 1.47000000e+02 1.47500000e+02 1.48000000e+02 1.48500000e+02 1.49000000e+02 1.49500000e+02 1.50500000e+02 1.51000000e+02 1.51500000e+02 1.52000000e+02 1.52500000e+02 1.53000000e+02 1.53500000e+02 1.54500000e+02 1.55000000e+02 1.56000000e+02 1.56500000e+02 1.57500000e+02 1.58000000e+02 1.59000000e+02 1.59500000e+02 1.60500000e+02 1.61000000e+02 1.62000000e+02 1.62500000e+02 1.63500000e+02 1.64500000e+02 1.65500000e+02 1.66500000e+02 1.67500000e+02 1.68000000e+02 1.69000000e+02 1.69500000e+02 1.70500000e+02 1.71500000e+02 1.73000000e+02 1.73500000e+02 1.74500000e+02 1.76000000e+02 1.77000000e+02 1.78500000e+02 1.79500000e+02 1.81000000e+02 1.82500000e+02 1.84000000e+02 1.86000000e+02 1.87500000e+02 1.89000000e+02 1.90500000e+02 1.92000000e+02 1.94000000e+02 1.96000000e+02 1.98000000e+02 2.00000000e+02 2.02000000e+02 2.04000000e+02 2.06000000e+02 2.08500000e+02 2.11000000e+02 2.14000000e+02 2.16500000e+02 2.19500000e+02 2.23500000e+02 2.26500000e+02 2.30500000e+02 2.34500000e+02 2.37500000e+02 2.42000000e+02 2.47000000e+02 2.53000000e+02 2.58000000e+02 2.62500000e+02 2.66500000e+02 2.70500000e+02 2.74500000e+02 2.79500000e+02 2.84500000e+02 2.90500000e+02 2.96500000e+02 3.03000000e+02 3.11000000e+02 3.19500000e+02 3.30500000e+02 3.40500000e+02 3.55500000e+02 3.69500000e+02 3.90500000e+02 4.21500000e+02 4.89500000e+02 5.11500000e+02 
            </HistogramBinning>
          </PDF>
        </CumulativePDF_cls2>
      </Variable>
      <Variable VarIndex="1">
        <CumulativePDF_cls0>
          <PDF Name="GaussTransform var1 cls0" MinNSmooth="0" MaxNSmooth="0" InterpolMethod="1" KDE_type="0" KDE_iter="1" KDE_border="1" KDE_finefactor="0.0000000000000000e+00">
            <Histogram Name="Cumulative_Var1_cls0_original" NBins="319" XMin="5.4998998641967773e+00" XMax="5.1150000000000000e+02" HasEquidistantBins="0">
              1.09932425e-05 3.07123701e-04 8.16420012e-04 1.48863962e-03 2.34402274e-03 3.44423437e-03 4.78641177e-03 6.32890128e-03 8.11805110e-03 1.02012707e-02 1.25593208e-02 1.51873929e-02 1.80851426e-02 2.12158114e-02 2.45474521e-02 2.81271264e-02 3.20338495e-02 3.62277701e-02 4.06582206e-02 4.53315489e-02 5.02118617e-02 5.52907400e-02 6.05606250e-02 6.60228953e-02 7.17118979e-02 7.75949955e-02 8.35906118e-02 8.97119567e-02 9.60454345e-02 1.02569237e-01 1.09248318e-01 1.16042145e-01 1.23012200e-01 1.30312577e-01 1.37860984e-01 1.45481527e-01 1.53115988e-01 1.60787046e-01 1.68542609e-01 1.76480234e-01 1.84617981e-01 1.92869797e-01 2.01204732e-01 2.09605113e-01 2.18048260e-01 2.26563558e-01 2.35172987e-01 2.43829995e-01 2.52496779e-01 2.61171162e-01 2.69853741e-01 2.78602660e-01 2.87448943e-01 2.96330452e-01 3.05211961e-01 3.14082652e-01 3.22942525e-01 3.31790715e-01 3.40627223e-01 3.49453419e-01 3.58257622e-01 3.67009103e-01 3.75642061e-01 3.84141207e-01 3.92581284e-01 4.01015848e-01 4.09447640e-01 4.17873979e-01 4.26293075e-01 4.34614271e-01 4.42734838e-01 4.50750977e-01 4.58764374e-01 4.66773629e-01 4.74747866e-01 4.82654750e-01 4.90462691e-01 4.98104542e-01 5.05586505e-01 5.12996614e-01 5.20387828e-01 5.27776182e-01 5.35064697e-01 5.42121291e-01 5.49021304e-01 5.55825412e-01 5.62525809e-01 5.69190443e-01 5.75855136e-01 5.82488000e-01 5.89057326e-01 5.95513761e-01 6.01781309e-01 6.07913435e-01 6.14009023e-01 6.20095491e-01 6.26153111e-01 6.32131040e-01 6.37978077e-01 6.43705726e-01 6.49368107e-01 6.54989302e-01 6.60588264e-01 6.66107535e-01 6.71488047e-01 6.76744878e-01 6.81924105e-01 6.87060833e-01 6.92152619e-01 6.97179973e-01 7.02119350e-01 7.07008600e-01 7.11818814e-01 7.16453195e-01 7.20934808e-01 7.25339174e-01 7.29717910e-01 7.34096646e-01 7.38467813e-01 7.42823899e-01 7.47118115e-01 7.51303792e-01 7.55417347e-01 7.59489477e-01 7.63509035e-01 7.67461121e-01 7.71328509e-01 7.75104165e-01 7.78819919e-01 7.82469630e-01 7.85999000e-01 7.89439559e-01 7.92829394e-01 7.96174943e-01 7.99514651e-01 8.02847028e-01 8.06144297e-01 8.09409976e-01 8.12663972e-01 8.15834999e-01 8.18832576e-01 8.21707964e-01 8.24519038e-01 8.27290714e-01 8.30050051e-01 8.32789958e-01 8.35510015e-01 8.38223934e-01 8.40924144e-01 8.43603432e-01 8.46282005e-01 8.48914862e-01 8.51443291e-01 8.53888631e-01 8.56272101e-01 8.58624637e-01 8.60946298e-01 8.63180637e-01 8.65324378e-01 8.67427349e-01 8.69509518e-01 8.71559739e-01 8.73586953e-01 8.75604749e-01 8.77597272e-01 8.79538953e-01 8.81415725e-01 8.83228898e-01 8.85009825e-01 8.86782467e-01 8.88550997e-01 8.90309215e-01 8.92041862e-01 8.93754601e-01 8.95464540e-01 8.97178352e-01 8.98894250e-01 9.00586605e-01 9.02211726e-01 9.03758347e-01 9.05254781e-01 9.06722367e-01 9.08154249e-01 9.09553111e-01 9.10932779e-01 9.12302136e-01 9.13669407e-01 9.15036678e-01 9.16398466e-01 9.17728662e-01 9.19003904e-01 9.20235157e-01 9.21442330e-01 9.22635078e-01 9.23823237e-01 9.25013065e-01 9.26193476e-01 9.27352548e-01 9.28493142e-01 9.29605484e-01 9.30677533e-01 9.31727052e-01 9.32769835e-01 9.33795273e-01 9.34806049e-01 9.35799718e-01 9.36746955e-01 9.37653899e-01 9.38566625e-01 9.39500630e-01 9.40421164e-01 9.41300273e-01 9.42152202e-01 9.43005741e-01 9.43865955e-01 9.44719970e-01 9.45543468e-01 9.46324289e-01 9.47081149e-01 9.47826266e-01 9.48558688e-01 9.49277401e-01 9.49989200e-01 9.50691521e-01 9.51375008e-01 9.52049017e-01 9.52723086e-01 9.53397632e-01 9.54069078e-01 9.54732776e-01 9.55392361e-01 9.56040204e-01 9.56659317e-01 9.57255721e-01 9.57846582e-01 9.58446443e-01 9.59065497e-01 9.59693670e-01 9.60302949e-01 9.60877597e-01 9.61428642e-01 9.61967289e-01 9.62493062e-01 9.63010967e-01 9.63534594e-01 9.64069307e-01 9.64599848e-01 9.65101182e-01 9.65567529e-01 9.66021419e-01 9.66480792e-01 9.66945589e-01 9.67424035e-01 9.67926919e-01 9.68439996e-01 9.68932033e-01 9.69390213e-01 9.69829917e-01 9.70266879e-01 9.70681190e-01 9.71046507e-01 9.71384764e-01 9.71734285e-01 9.72104609e-01 9.72483873e-01 9.72898901e-01 9.73414361e-01 9.73994613e-01 9.74545777e-01 9.75067973e-01 9.75590169e-01 9.76111650e-01 9.76631761e-01 9.77151215e-01 9.77676809e-01 9.78207052e-01 9.78717029e-01 9.79190826e-01 9.79639411e-01 9.80097532e-01 9.80601847e-01 9.81144607e-01 9.81687725e-01 9.82204914e-01 9.82695818e-01 9.83177781e-01 9.83670831e-01 9.84182417e-01 9.84701872e-01 9.85223353e-01 9.85749662e-01 9.86278713e-01 9.86805022e-01 9.87326503e-01 9.87843215e-01 9.88354385e-01 9.88862813e-01 9.89370346e-01 9.89876151e-01 9.90382731e-01 9.90893006e-01 9.91404176e-01 9.91911054e-01 9.92412627e-01 9.92911398e-01 9.93408859e-01 9.93905604e-01 9.94402349e-01 9.94902730e-01 9.95410323e-01 9.95921493e-01 9.96432722e-01 9.96943891e-01 9.97455060e-01 9.97965574e-01 9.98474717e-01 9.98983145e-01 9.99491572e-01 1.00000000e+00 
            </Histogram>
            <HistogramBinning NBins="319">
              5.49989986e+00 5.50000000e+00 6.00000000e+00 6.50000000e+00 7.00000000e+00 7.50000000e+00 8.00000000e+00 8.50000000e+00 9.00000000e+00 9.50000000e+00 1.00000000e+01 1.05000000e+01 1.10000000e+01 1.15000000e+01 1.20000000e+01 1.25000000e+01 1.30000000e+01 1.35000000e+01 1.40000000e+01 1.45000000e+01 1.50000000e+01 1.55000000e+01 1.60000000e+01 1.65000000e+01 1.70000000e+01 1.75000000e+01 1.80000000e+01 1.85000000e+01 1.90000000e+01 1.95000000e+01 2.00000000e+01 2.05000000e+01 2.10000000e+01 2.15000000e+01 2.20000000e+01 2.25000000e+01 2.30000000e+01 2.35000000e+01 2.40000000e+01 2.45000000e+01 2.50000000e+01 2.55000000e+01 2.60000000e+01 2.65000000e+01 2.70000000e+01 2.75000000e+01 2.80000000e+01 2.85000000e+01 2.90000000e+01 2.95000000e+01 3.00000000e+01 3.05000000e+01 3.10000000e+01 3.15000000e+01 3.20000000e+01 3.25000000e+01 3.30000000e+01 3.35000000e+01 3.40000000e+01 3.45000000e+01 3.50000000e+01 3.55000000e+01 3.60000000e+01 3.65000000e+01 3.70000000e+01 3.75000000e+01 3.80000000e+01 3.85000000e+01 3.90000000e+01 3.95000000e+01 4.00000000e+01 4.05000000e+01 4.10000000e+01 4.15000000e+01 4.20000000e+01 4.25000000e+01 4.30000000e+01 4.35000000e+01 4.40000000e+01 4.45000000e+01 4.50000000e+01 4.55000000e+01 4.60000000e+01 4.65000000e+01 4.70000000e+01 4.75000000e+01 4.80000000e+01 4.85000000e+01 4.90000000e+01 4.95000000e+01 5.00000000e+01 5.05000000e+01 5.10000000e+01 5.15000000e+01 5.20000000e+01 5.25000000e+01 5.30000000e+01 5.35000000e+01 5.40000000e+01 5.45000000e+01 5.50000000e+01 5.55000000e+01 5.60000000e+01 5.65000000e+01 5.70000000e+01 5.75000000e+01 5.80000000e+01 5.85000000e+01 5.90000000e+01 5.95000000e+01 6.00000000e+01 6.05000000e+01 6.10000000e+01 6.15000000e+01 6.20000000e+01 6.25000000e+01 6.30000000e+01 6.35000000e+01 6.40000000e+01 6.45000000e+01 6.50000000e+01 6.55000000e+01 6.60000000e+01 6.65000000e+01 6.70000000e+01 6.75000000e+01 6.80000000e+01 6.85000000e+01 6.90000000e+01 6.95000000e+01 7.00000000e+01 7.05000000e+01 7.10000000e+01 7.15000000e+01 7.20000000e+01 7.25000000e+01 7.30000000e+01 7.35000000e+01 7.40000000e+01 7.45000000e+01 7.50000000e+01 7.55000000e+01 7.60000000e+01 7.65000000e+01 7.70000000e+01 7.75000000e+01 7.80000000e+01 7.85000000e+01 7.90000000e+01 7.95000000e+01 8.00000000e+01 8.05000000e+01 8.10000000e+01 8.15000000e+01 8.20000000e+01 8.25000000e+01 8.30000000e+01 8.35000000e+01 8.40000000e+01 8.45000000e+01 8.50000000e+01 8.55000000e+01 8.60000000e+01 8.65000000e+01 8.70000000e+01 8.75000000e+01 8.80000000e+01 8.85000000e+01 8.90000000e+01 8.95000000e+01 9.00000000e+01 9.05000000e+01 9.10000000e+01 9.15000000e+01 9.20000000e+01 9.25000000e+01 9.30000000e+01 9.35000000e+01 9.40000000e+01 9.45000000e+01 9.50000000e+01 9.55000000e+01 9.60000000e+01 9.65000000e+01 9.70000000e+01 9.75000000e+01 9.80000000e+01 9.85000000e+01 9.90000000e+01 9.95000000e+01 1.00000000e+02 1.00500000e+02 1.01000000e+02 1.01500000e+02 1.02000000e+02 1.02500000e+02 1.03000000e+02 1.03500000e+02 1.04000000e+02 1.04500000e+02 1.05000000e+02 1.05500000e+02 1.06000000e+02 1.06500000e+02 1.07000000e+02 1.07500000e+02 1.08000000e+02 1.08500000e+02 1.09000000e+02 1.09500000e+02 1.10000000e+02 1.10500000e+02 1.11000000e+02 1.11500000e+02 1.12000000e+02 1.12500000e+02 1.13000000e+02 1.13500000e+02 1.14000000e+02 1.14500000e+02 1.15000000e+02 1.15500000e+02 1.16000000e+02 1.16500000e+02 1.17000000e+02 1.17500000e+02 1.18000000e+02 1.18500000e+02 1.19000000e+02 1.19500000e+02 1.20000000e+02 1.20500000e+02 1.21000000e+02 1.21500000e+02 1.22000000e+02 1.22500000e+02 1.23000000e+02 1.23500000e+02 1.24000000e+02 1.24500000e+02 1.25000000e+02 1.25500000e+02 1.26000000e+02 1.26500000e+02 1.27000000e+02 1.27500000e+02 1.28000000e+02 1.28500000e+02 1.29000000e+02 1.29500000e+02 1.30000000e+02 1.30500000e+02 1.31000000e+02 1.31500000e+02 1.32000000e+02 1.32500000e+02 1.33500000e+02 1.34000000e+02 1.34500000e+02 1.35000000e+02 1.35500000e+02 1.36500000e+02 1.37000000e+02 1.37500000e+02 1.38500000e+02 1.39000000e+02 1.40000000e+02 1.40500000e+02 1.41500000e+02 1.42000000e+02 1.43000000e+02 1.44000000e+02 1.45000000e+02 1.46000000e+02 1.47000000e+02 1.48000000e+02 1.49000000e+02 1.50000000e+02 1.51000000e+02 1.52000000e+02 1.53500000e+02 1.54500000e+02 1.56000000e+02 1.57500000e+02 1.58500000e+02 1.60000000e+02 1.61500000e+02 1.63000000e+02 1.65000000e+02 1.67500000e+02 1.69500000e+02 1.71500000e+02 1.74000000e+02 1.77000000e+02 1.79500000e+02 1.83000000e+02 1.86500000e+02 1.91000000e+02 1.96000000e+02 2.00000000e+02 2.05000000e+02 2.11500000e+02 2.18500000e+02 2.25500000e+02 2.39500000e+02 2.55500000e+02 2.60000000e+02 2.63500000e+02 2.67000000e+02 2.72000000e+02 2.76500000e+02 2.82000000e+02 2.88500000e+02 2.96000000e+02 3.04000000e+02 3.16000000e+02 3.29000000e+02 3.55500000e+02 4.20000000e+02 5.11500000e+02 
            </HistogramBinning>
          </PDF>
        </CumulativePDF_cls0>
        <CumulativePDF_cls1>
          <PDF Name="GaussTransform var1 cls1" MinNSmooth="0" MaxNSmooth="0" InterpolMethod="1" KDE_type="0" KDE_iter="1" KDE_border="1" KDE_finefactor="0.0000000000000000e+00">
            <Histogram Name="Cumulative_Var1_cls1_original" NBins="135" XMin="5.4998998641967773e+00" XMax="1.9850000000000000e+02" HasEquidistantBins="0">
              2.30438518e-03 4.60877037e-03 6.91315578e-03 9.98566952e-03 1.49465008e-02 2.24410910e-02 3.30295339e-02 4.58370112e-02 5.92312515e-02 7.28015229e-02 8.72679353e-02 1.03270605e-01 1.20377459e-01 1.38156429e-01 1.56623498e-01 1.75858706e-01 1.96054071e-01 2.17273608e-01 2.39397287e-01 2.62491792e-01 2.86077082e-01 3.08947533e-01 3.30039054e-01 3.49370271e-01 3.68061393e-01 3.86880517e-01 4.05955702e-01 4.25030887e-01 4.43209916e-01 4.59788680e-01 4.75103229e-01 4.89169598e-01 5.01843691e-01 5.13621688e-01 5.24695516e-01 5.35513341e-01 5.47328651e-01 5.60840249e-01 5.74922621e-01 5.87330043e-01 5.97305000e-01 6.06181204e-01 6.14886642e-01 6.23549402e-01 6.32489562e-01 6.41877830e-01 6.51351392e-01 6.60227597e-01 6.68100893e-01 6.75227404e-01 6.82140589e-01 6.88925743e-01 6.95454836e-01 7.02223957e-01 7.09729195e-01 7.17234433e-01 7.24003613e-01 7.30404675e-01 7.36805737e-01 7.43206799e-01 7.49562562e-01 7.55600452e-01 7.60996461e-01 7.65816808e-01 7.70502031e-01 7.75649130e-01 7.81598568e-01 7.88048983e-01 7.94232666e-01 7.99546897e-01 8.04082334e-01 8.08324397e-01 8.12619746e-01 8.17085862e-01 8.21502566e-01 8.25620592e-01 8.29695940e-01 8.34466100e-01 8.40402663e-01 8.46854806e-01 8.52497995e-01 8.56872082e-01 8.60712707e-01 8.64553332e-01 8.68394017e-01 8.72042596e-01 8.75307143e-01 8.78379643e-01 8.81452203e-01 8.84524703e-01 8.87597203e-01 8.90669703e-01 8.93742263e-01 8.96814764e-01 8.99823248e-01 9.02575731e-01 9.05008137e-01 9.07248497e-01 9.09360826e-01 9.11409199e-01 9.13457513e-01 9.15505886e-01 9.17554200e-01 9.19570565e-01 9.21746910e-01 9.24115300e-01 9.26419675e-01 9.28820074e-01 9.31444526e-01 9.34197009e-01 9.37013447e-01 9.39829946e-01 9.42582428e-01 9.45206821e-01 9.47767258e-01 9.50327694e-01 9.52888131e-01 9.55448568e-01 9.58009005e-01 9.60569382e-01 9.63129818e-01 9.65690255e-01 9.68250692e-01 9.70811129e-01 9.73435581e-01 9.76188004e-01 9.79004502e-01 9.81820941e-01 9.84573424e-01 9.87197876e-01 9.89758313e-01 9.92318690e-01 9.94879127e-01 9.97439563e-01 1.00000000e+00 
            </Histogram>
            <HistogramBinning NBins="135">
              5.49989986e+00 5.50000000e+00 6.00000000e+00 6.50000000e+00 7.00000000e+00 7.50000000e+00 8.00000000e+00 8.50000000e+00 9.00000000e+00 9.50000000e+00 1.00000000e+01 1.05000000e+01 1.10000000e+01 1.15000000e+01 1.20000000e+01 1.25000000e+01 1.30000000e+01 1.35000000e+01 1.40000000e+01 1.45000000e+01 1.50000000e+01 1.55000000e+01 1.60000000e+01 1.65000000e+01 1.70000000e+01 1.75000000e+01 1.80000000e+01 1.85000000e+01 1.90000000e+01 1.95000000e+01 2.00000000e+01 2.05000000e+01 2.10000000e+01 2.15000000e+01 2.20000000e+01 2.25000000e+01 2.30000000e+01 2.35000000e+01 2.40000000e+01 2.45000000e+01 2.50000000e+01 2.55000000e+01 2.60000000e+01 2.65000000e+01 2.70000000e+01 2.75000000e+01 2.80000000e+01 2.85000000e+01 2.90000000e+01 2.95000000e+01 3.00000000e+01 3.05000000e+01 3.10000000e+01 3.15000000e+01 3.20000000e+01 3.25000000e+01 3.30000000e+01 3.35000000e+01 3.40000000e+01 3.45000000e+01 3.50000000e+01 3.55000000e+01 3.60000000e+01 3.65000000e+01 3.70000000e+01 3.75000000e+01 3.80000000e+01 3.85000000e+01 3.90000000e+01 3.95000000e+01 4.00000000e+01 4.05000000e+01 4.10000000e+01 4.15000000e+01 4.20000000e+01 4.25000000e+01 4.30000000e+01 4.35000000e+01 4.40000000e+01 4.45000000e+01 4.50000000e+01 4.55000000e+01 4.60000000e+01 4.65000000e+01 4.70000000e+01 4.75000000e+01 4.80000000e+01 4.85000000e+01 4.90000000e+01 4.95000000e+01 5.00000000e+01 5.05000000e+01 5.10000000e+01 5.15000000e+01 5.20000000e+01 5.25000000e+01 5.30000000e+01 5.35000000e+01 5.40000000e+01 5.45000000e+01 5.50000000e+01 5.55000000e+01 5.65000000e+01 5.75000000e+01 5.80000000e+01 5.85000000e+01 5.95000000e+01 6.00000000e+01 6.10000000e+01 6.15000000e+01 6.25000000e+01 6.30000000e+01 6.40000000e+01 6.45000000e+01 6.50000000e+01 6.60000000e+01 6.70000000e+01 6.80000000e+01 6.90000000e+01 7.00000000e+01 7.15000000e+01 7.25000000e+01 7.35000000e+01 7.45000000e+01 7.50000000e+01 7.70000000e+01 7.95000000e+01 8.10000000e+01 8.25000000e+01 8.75000000e+01 9.45000000e+01 1.01000000e+02 1.04500000e+02 1.20000000e+02 1.39500000e+02 1.98500000e+02 
            </HistogramBinning>
          </PDF>
        </CumulativePDF_cls1>
        <CumulativePDF_cls2>
          <PDF Name="GaussTransform var1 cls2" MinNSmooth="0" MaxNSmooth="0" InterpolMethod="1" KDE_type="0" KDE_iter="1" KDE_border="1" KDE_finefactor="0.0000000000000000e+00">
            <Histogram Name="Cumulative_Var1_cls2_original" NBins="277" XMin="5.4998998641967773e+00" XMax="5.1150000000000000e+02" HasEquidistantBins="0">
              1.11876975e-03 2.41178903e-03 3.82381608e-03 5.70845138e-03 8.63416027e-03 1.29478881e-02 1.89692434e-02 2.62513403e-02 3.39297317e-02 4.17768508e-02 5.02662212e-02 5.98385669e-02 7.00572729e-02 8.04857165e-02 9.12377387e-02 1.02546595e-01 1.14605203e-01 1.27367616e-01 1.40690789e-01 1.54659480e-01 1.69061661e-01 1.83256477e-01 1.96752176e-01 2.09468484e-01 2.21726954e-01 2.34128669e-01 2.47044250e-01 2.60059148e-01 2.72462159e-01 2.83977747e-01 2.94889927e-01 3.05368215e-01 3.15345377e-01 3.24895114e-01 3.34035873e-01 3.43060821e-01 3.52680296e-01 3.63248140e-01 3.74189436e-01 3.84375632e-01 3.93399924e-01 4.01920825e-01 4.10415620e-01 4.18910414e-01 4.27533031e-01 4.36435223e-01 4.45515186e-01 4.54394102e-01 4.62812901e-01 4.70893204e-01 4.78871375e-01 4.86746579e-01 4.94435430e-01 5.02187967e-01 5.10254323e-01 5.18312335e-01 5.26039779e-01 5.33601940e-01 5.41164100e-01 5.48726261e-01 5.56282699e-01 5.63689172e-01 5.70729434e-01 5.77413201e-01 5.83999813e-01 5.90847790e-01 5.98174870e-01 6.05863512e-01 6.13504708e-01 6.20591938e-01 6.27021849e-01 6.33194149e-01 6.39366448e-01 6.45534635e-01 6.51644766e-01 6.57636464e-01 6.63570285e-01 6.69672251e-01 6.76097572e-01 6.82608426e-01 6.88728094e-01 6.94316030e-01 6.99687004e-01 7.05057979e-01 7.10428953e-01 7.15692937e-01 7.20742941e-01 7.25686014e-01 7.30629027e-01 7.35572040e-01 7.40425766e-01 7.45100737e-01 7.49686420e-01 7.54272103e-01 7.58806646e-01 7.63188958e-01 7.67420292e-01 7.71495163e-01 7.75357127e-01 7.79092729e-01 7.82788455e-01 7.86434591e-01 7.90018678e-01 7.93572724e-01 7.97113836e-01 8.00618649e-01 8.04053903e-01 8.07391822e-01 8.10681045e-01 8.13948929e-01 8.17189813e-01 8.20440412e-01 8.23706627e-01 8.26910615e-01 8.29950094e-01 8.32844496e-01 8.35713267e-01 8.38662446e-01 8.41717839e-01 8.44816327e-01 8.47913444e-01 8.50943387e-01 8.53777707e-01 8.56417120e-01 8.58991265e-01 8.61565411e-01 8.64185393e-01 8.66912365e-01 8.69682074e-01 8.72292638e-01 8.74655664e-01 8.76911640e-01 8.79167676e-01 8.81431639e-01 8.83711398e-01 8.85999143e-01 8.88286889e-01 8.90604854e-01 8.92989635e-01 8.95399928e-01 8.97776961e-01 8.99977088e-01 9.01796520e-01 9.03311670e-01 9.04817581e-01 9.06459033e-01 9.08177435e-01 9.09921944e-01 9.11626041e-01 9.13218319e-01 9.14811254e-01 9.16517377e-01 9.18230534e-01 9.19844687e-01 9.21339452e-01 9.22669172e-01 9.23867166e-01 9.25006509e-01 9.26112711e-01 9.27207887e-01 9.28303123e-01 9.29408967e-01 9.30536211e-01 9.31674123e-01 9.32823598e-01 9.34001565e-01 9.35198247e-01 9.36337292e-01 9.37360704e-01 9.38306212e-01 9.39207852e-01 9.40081537e-01 9.40940797e-01 9.41789925e-01 9.42637980e-01 9.43488061e-01 9.44339216e-01 9.45186973e-01 9.46028113e-01 9.46865976e-01 9.47678447e-01 9.48440373e-01 9.49174762e-01 9.49904859e-01 9.50646996e-01 9.51454937e-01 9.52359676e-01 9.53296185e-01 9.54148293e-01 9.54879582e-01 9.55543816e-01 9.56173837e-01 9.56829548e-01 9.57570910e-01 9.58332658e-01 9.59049702e-01 9.59744275e-01 9.60438907e-01 9.61133480e-01 9.61788476e-01 9.62356329e-01 9.62868512e-01 9.63368058e-01 9.63863194e-01 9.64362383e-01 9.64865685e-01 9.65369046e-01 9.65872407e-01 9.66363728e-01 9.66830611e-01 9.67284739e-01 9.67738032e-01 9.68190908e-01 9.68643725e-01 9.69096541e-01 9.69561100e-01 9.70048964e-01 9.70548511e-01 9.71048057e-01 9.71547604e-01 9.72047210e-01 9.72546756e-01 9.73046303e-01 9.73533571e-01 9.73996282e-01 9.74446774e-01 9.74897206e-01 9.75347638e-01 9.75798130e-01 9.76280689e-01 9.76827562e-01 9.77406621e-01 9.77985620e-01 9.78555501e-01 9.79107141e-01 9.79649663e-01 9.80191171e-01 9.80730653e-01 9.81258929e-01 9.81766939e-01 9.82264757e-01 9.82762635e-01 9.83260453e-01 9.83758330e-01 9.84256208e-01 9.84736979e-01 9.85217094e-01 9.85728621e-01 9.86239433e-01 9.86734569e-01 9.87229705e-01 9.87724781e-01 9.88219917e-01 9.88715053e-01 9.89208221e-01 9.89699721e-01 9.90186930e-01 9.90662932e-01 9.91131246e-01 9.91601825e-01 9.92082834e-01 9.92575765e-01 9.93074238e-01 9.93569374e-01 9.94057596e-01 9.94542778e-01 9.95028257e-01 9.95513856e-01 9.96002138e-01 9.96496916e-01 9.96996522e-01 9.97497082e-01 9.97997642e-01 9.98498261e-01 9.98998821e-01 9.99499440e-01 1.00000000e+00 
            </Histogram>
            <HistogramBinning NBins="277">
              5.49989986e+00 5.50000000e+00 6.00000000e+00 6.50000000e+00 7.00000000e+00 7.50000000e+00 8.00000000e+00 8.50000000e+00 9.00000000e+00 9.50000000e+00 1.00000000e+01 1.05000000e+01 1.10000000e+01 1.15000000e+01 1.20000000e+01 1.25000000e+01 1.30000000e+01 1.35000000e+01 1.40000000e+01 1.45000000e+01 1.50000000e+01 1.55000000e+01 1.60000000e+01 1.65000000e+01 1.70000000e+01 1.75000000e+01 1.80000000e+01 1.85000000e+01 1.90000000e+01 1.95000000e+01 2.00000000e+01 2.05000000e+01 2.10000000e+01 2.15000000e+01 2.20000000e+01 2.25000000e+01 2.30000000e+01 2.35000000e+01 2.40000000e+01 2.45000000e+01 2.50000000e+01 2.55000000e+01 2.60000000e+01 2.65000000e+01 2.70000000e+01 2.75000000e+01 2.80000000e+01 2.85000000e+01 2.90000000e+01 2.95000000e+01 3.00000000e+01 3.05000000e+01 3.10000000e+01 3.15000000e+01 3.20000000e+01 3.25000000e+01 3.30000000e+01 3.35000000e+01 3.40000000e+01 3.45000000e+01 3.50000000e+01 3.55000000e+01 3.60000000e+01 3.65000000e+01 3.70000000e+01 3.75000000e+01 3.80000000e+01 3.85000000e+01 3.90000000e+01 3.95000000e+01 4.00000000e+01 4.05000000e+01 4.10000000e+01 4.15000000e+01 4.20000000e+01 4.25000000e+01 4.30000000e+01 4.35000000e+01 4.40000000e+01 4.45000000e+01 4.50000000e+01 4.55000000e+01 4.60000000e+01 4.65000000e+01 4.70000000e+01 4.75000000e+01 4.80000000e+01 4.85000000e+01 4.90000000e+01 4.95000000e+01 5.00000000e+01 5.05000000e+01 5.10000000e+01 5.15000000e+01 5.20000000e+01 5.25000000e+01 5.30000000e+01 5.35000000e+01 5.40000000e+01 5.45000000e+01 5.50000000e+01 5.55000000e+01 5.60000000e+01 5.65000000e+01 5.70000000e+01 5.75000000e+01 5.80000000e+01 5.85000000e+01 5.90000000e+01 5.95000000e+01 6.00000000e+01 6.05000000e+01 6.10000000e+01 6.15000000e+01 6.20000000e+01 6.25000000e+01 6.30000000e+01 6.35000000e+01 6.40000000e+01 6.45000000e+01 6.50000000e+01 6.55000000e+01 6.60000000e+01 6.65000000e+01 6.70000000e+01 6.75000000e+01 6.80000000e+01 6.85000000e+01 6.90000000e+01 6.95000000e+01 7.00000000e+01 7.05000000e+01 7.10000000e+01 7.15000000e+01 7.20000000e+01 7.25000000e+01 7.30000000e+01 7.35000000e+01 7.40000000e+01 7.45000000e+01 7.50000000e+01 7.55000000e+01 7.60000000e+01 7.65000000e+01 7.70000000e+01 7.75000000e+01 7.80000000e+01 7.85000000e+01 7.90000000e+01 7.95000000e+01 8.00000000e+01 8.05000000e+01 8.10000000e+01 8.15000000e+01 8.20000000e+01 8.25000000e+01 8.30000000e+01 8.35000000e+01 8.40000000e+01 8.45000000e+01 8.50000000e+01 8.55000000e+01 8.60000000e+01 8.65000000e+01 8.70000000e+01 8.75000000e+01 8.80000000e+01 8.85000000e+01 8.90000000e+01 8.95000000e+01 9.00000000e+01 9.05000000e+01 9.10000000e+01 9.15000000e+01 9.20000000e+01 9.25000000e+01 9.30000000e+01 9.35000000e+01 9.40000000e+01 9.45000000e+01 9.50000000e+01 9.55000000e+01 9.60000000e+01 9.65000000e+01 9.70000000e+01 9.75000000e+01 9.80000000e+01 9.85000000e+01 9.90000000e+01 9.95000000e+01 1.00000000e+02 1.00500000e+02 1.01000000e+02 1.01500000e+02 1.02000000e+02 1.02500000e+02 1.03000000e+02 1.03500000e+02 1.04000000e+02 1.04500000e+02 1.05000000e+02 1.05500000e+02 1.06000000e+02 1.06500000e+02 1.07000000e+02 1.07500000e+02 1.08000000e+02 1.08500000e+02 1.09000000e+02 1.09500000e+02 1.10000000e+02 1.10500000e+02 1.11000000e+02 1.11500000e+02 1.12000000e+02 1.12500000e+02 1.13000000e+02 1.13500000e+02 1.14000000e+02 1.15000000e+02 1.15500000e+02 1.16000000e+02 1.17000000e+02 1.17500000e+02 1.18500000e+02 1.19000000e+02 1.19500000e+02 1.20000000e+02 1.20500000e+02 1.21000000e+02 1.21500000e+02 1.22500000e+02 1.23500000e+02 1.24000000e+02 1.25000000e+02 1.25500000e+02 1.26500000e+02 1.27500000e+02 1.28000000e+02 1.29000000e+02 1.30000000e+02 1.31500000e+02 1.32500000e+02 1.33500000e+02 1.35000000e+02 1.35500000e+02 1.37000000e+02 1.38000000e+02 1.39500000e+02 1.40500000e+02 1.41500000e+02 1.43000000e+02 1.45000000e+02 1.47000000e+02 1.49000000e+02 1.51000000e+02 1.53500000e+02 1.56000000e+02 1.57500000e+02 1.60000000e+02 1.63000000e+02 1.67500000e+02 1.71500000e+02 1.77000000e+02 1.83000000e+02 1.90500000e+02 1.98500000e+02 2.06000000e+02 2.19000000e+02 2.41000000e+02 2.60000000e+02 2.67500000e+02 2.77000000e+02 2.89500000e+02 3.05000000e+02 3.31000000e+02 4.32500000e+02 5.11500000e+02 
            </HistogramBinning>
          </PDF>
        </CumulativePDF_cls2>
      </Variable>
      <Variable VarIndex="2">
        <CumulativePDF_cls0>
          <PDF Name="GaussTransform var2 cls0" MinNSmooth="0" MaxNSmooth="0" InterpolMethod="1" KDE_type="0" KDE_iter="1" KDE_border="1" KDE_finefactor="0.0000000000000000e+00">
            <Histogram Name="Cumulative_Var2_cls0_original" NBins="1437" XMin="-9.3276004791259766e+00" XMax="1.0185000419616699e+01" HasEquidistantBins="0">
              0.00000000e+00 3.59149912e-04 9.65506886e-04 1.66794809e-03 2.38811364e-03 3.11201066e-03 3.83590767e-03 4.56353603e-03 5.31355292e-03 6.10088417e-03 6.90687262e-03 7.71286106e-03 8.51161964e-03 9.29195434e-03 1.00387065e-02 1.07453456e-02 1.14349602e-02 1.21252742e-02 1.28324963e-02 1.35226939e-02 1.41159901e-02 1.46607794e-02 1.53099308e-02 1.61123052e-02 1.69630703e-02 1.77765340e-02 1.85601991e-02 1.92954578e-02 1.99247878e-02 2.04683319e-02 2.10201945e-02 2.16339361e-02 2.22846810e-02 2.29382254e-02 2.35912260e-02 2.42443811e-02 2.49230340e-02 2.56655887e-02 2.64504310e-02 2.72116438e-02 2.79221684e-02 2.86115110e-02 2.93050446e-02 2.99879815e-02 3.06335501e-02 3.12503427e-02 3.18781547e-02 3.25386189e-02 3.32175829e-02 3.38857025e-02 3.45305800e-02 3.51649225e-02 3.57992649e-02 3.64382714e-02 3.70866060e-02 3.77719849e-02 3.85334678e-02 3.93438116e-02 4.01292741e-02 4.08553481e-02 4.15399484e-02 4.22013067e-02 4.28468436e-02 4.34877165e-02 4.41285893e-02 4.47902158e-02 4.54933569e-02 4.62172553e-02 4.69411537e-02 4.76650484e-02 4.83540818e-02 4.89589199e-02 4.95018438e-02 5.00522293e-02 5.06636016e-02 5.13386391e-02 5.20364158e-02 5.27341925e-02 5.34163453e-02 5.40639013e-02 5.46980910e-02 5.53680360e-02 5.60893677e-02 5.68319224e-02 5.75744770e-02 5.83170317e-02 5.90595864e-02 5.98161332e-02 6.05962351e-02 6.13814667e-02 6.21622652e-02 6.29533306e-02 6.37667775e-02 6.45876974e-02 6.53824881e-02 6.61453307e-02 6.69021159e-02 6.76633269e-02 6.84245378e-02 6.91502988e-02 6.98051602e-02 7.04245791e-02 7.10439980e-02 7.16634169e-02 7.22856298e-02 7.29311705e-02 7.36177489e-02 7.43340701e-02 7.50660077e-02 7.57833794e-02 7.64550343e-02 7.71117657e-02 7.78226033e-02 7.86081851e-02 7.94238523e-02 8.02303031e-02 8.09910521e-02 8.16390365e-02 8.21489170e-02 8.26017410e-02 8.31321478e-02 8.37880671e-02 8.44970345e-02 8.52060094e-02 8.59149769e-02 8.66174251e-02 8.73138383e-02 8.79837424e-02 8.85820165e-02 8.91380012e-02 8.97476599e-02 9.04471129e-02 9.11850035e-02 9.19228867e-02 9.26295295e-02 9.32736695e-02 9.38865542e-02 9.44994390e-02 9.51256230e-02 9.57783908e-02 9.64561105e-02 9.71627459e-02 9.78959724e-02 9.86422598e-02 9.93922725e-02 1.00142293e-01 1.00881115e-01 1.01597548e-01 1.02302790e-01 1.03008032e-01 1.03713267e-01 1.04413144e-01 1.05103485e-01 1.05785534e-01 1.06438868e-01 1.07048333e-01 1.07613333e-01 1.08122051e-01 1.08607136e-01 1.09145708e-01 1.09762952e-01 1.10411748e-01 1.11058377e-01 1.11692719e-01 1.12304673e-01 1.12905435e-01 1.13506190e-01 1.14106953e-01 1.14707716e-01 1.15302876e-01 1.15896173e-01 1.16493203e-01 1.17101423e-01 1.17730170e-01 1.18357047e-01 1.18972734e-01 1.19588420e-01 1.20204106e-01 1.20819792e-01 1.21455066e-01 1.22129522e-01 1.22810446e-01 1.23463698e-01 1.24138720e-01 1.24910682e-01 1.25744194e-01 1.26509130e-01 1.27134144e-01 1.27664000e-01 1.28180802e-01 1.28762916e-01 1.29448101e-01 1.30202770e-01 1.30986378e-01 1.31762519e-01 1.32507861e-01 1.33246332e-01 1.33999974e-01 1.34749994e-01 1.35477617e-01 1.36194050e-01 1.36910483e-01 1.37626916e-01 1.38343349e-01 1.39064685e-01 1.39810041e-01 1.40588745e-01 1.41429052e-01 1.42368957e-01 1.43328190e-01 1.44136563e-01 1.44710749e-01 1.45141214e-01 1.45605251e-01 1.46183133e-01 1.46813750e-01 1.47444353e-01 1.48074970e-01 1.48705572e-01 1.49326861e-01 1.49929494e-01 1.50507852e-01 1.51056379e-01 1.51584372e-01 1.52099311e-01 1.52610511e-01 1.53171167e-01 1.53817639e-01 1.54504210e-01 1.55190796e-01 1.55877382e-01 1.56563967e-01 1.57257780e-01 1.57953218e-01 1.58643067e-01 1.59314260e-01 1.59964234e-01 1.60612568e-01 1.61247611e-01 1.61882177e-01 1.62530512e-01 1.63178846e-01 1.63827196e-01 1.64493710e-01 1.65196627e-01 1.65917724e-01 1.66638821e-01 1.67358056e-01 1.68070018e-01 1.68746918e-01 1.69349387e-01 1.69881120e-01 1.70383617e-01 1.70902282e-01 1.71455786e-01 1.72024235e-01 1.72591850e-01 1.73159018e-01 1.73742995e-01 1.74360543e-01 1.74994886e-01 1.75629228e-01 1.76263571e-01 1.76897913e-01 1.77532256e-01 1.78166598e-01 1.78800941e-01 1.79435283e-01 1.80090144e-01 1.80786058e-01 1.81502491e-01 1.82218924e-01 1.82935357e-01 1.83674186e-01 1.84457779e-01 1.85263768e-01 1.86069757e-01 1.86875746e-01 1.87671483e-01 1.88416824e-01 1.89092219e-01 1.89732626e-01 1.90367907e-01 1.91003174e-01 1.91645920e-01 1.92308709e-01 1.93002760e-01 1.93748102e-01 1.94541037e-01 1.95349827e-01 1.96159542e-01 1.96969256e-01 1.97778985e-01 1.98556051e-01 1.99255690e-01 1.99898660e-01 2.00520188e-01 2.01127470e-01 2.01735228e-01 2.02348113e-01 2.02976868e-01 2.03637317e-01 2.04331368e-01 2.05069259e-01 2.05841660e-01 2.06655964e-01 2.07541332e-01 2.08447292e-01 2.09265873e-01 2.09964573e-01 2.10613847e-01 2.11263120e-01 2.11912379e-01 2.12559089e-01 2.13198557e-01 2.13833377e-01 2.14476570e-01 2.15159655e-01 2.15899423e-01 2.16686741e-01 2.17518851e-01 2.18373358e-01 2.19238415e-01 2.20078930e-01 2.20816508e-01 2.21465766e-01 2.22121254e-01 2.22828671e-01 2.23550707e-01 2.24251598e-01 2.24941909e-01 2.25632221e-01 2.26322532e-01 2.27018446e-01 2.27725551e-01 2.28438258e-01 2.29150966e-01 2.29863659e-01 2.30567962e-01 2.31255487e-01 2.31934607e-01 2.32617766e-01 2.33309016e-01 2.33982846e-01 2.34608486e-01 2.35212982e-01 2.35856950e-01 2.36558780e-01 2.37305999e-01 2.38095194e-01 2.38904908e-01 2.39714637e-01 2.40529895e-01 2.41322994e-01 2.42052197e-01 2.42719591e-01 2.43333861e-01 2.43928462e-01 2.44574219e-01 2.45293736e-01 2.46043757e-01 2.46794701e-01 2.47549385e-01 2.48331115e-01 2.49187484e-01 2.50122190e-01 2.51084924e-01 2.52047628e-01 2.52963692e-01 2.53786474e-01 2.54530638e-01 2.55210936e-01 2.55859286e-01 2.56507605e-01 2.57155955e-01 2.57816881e-01 2.58504748e-01 2.59215474e-01 2.59949505e-01 2.60710120e-01 2.61486262e-01 2.62266129e-01 2.63045996e-01 2.63810933e-01 2.64546037e-01 2.65249401e-01 2.65908927e-01 2.66531169e-01 2.67143101e-01 2.67755061e-01 2.68378228e-01 2.69023746e-01 2.69693077e-01 2.70386189e-01 2.71111965e-01 2.71891832e-01 2.72714138e-01 2.73546249e-01 2.74378359e-01 2.75203913e-01 2.75996864e-01 2.76744068e-01 2.77471691e-01 2.78196067e-01 2.78912812e-01 2.79641986e-01 2.80438960e-01 2.81320035e-01 2.82234251e-01 2.83148438e-01 2.84062654e-01 2.84983158e-01 2.85916239e-01 2.86863774e-01 2.87741303e-01 2.88407296e-01 2.88884729e-01 2.89352626e-01 2.89938450e-01 2.90610701e-01 2.91295946e-01 2.91983753e-01 2.92704433e-01 2.93488204e-01 2.94308424e-01 2.95131445e-01 2.95957237e-01 2.96785623e-01 2.97614008e-01 2.98442364e-01 2.99201727e-01 2.99823016e-01 3.00375253e-01 3.00927520e-01 3.01480234e-01 3.02033871e-01 3.02601993e-01 3.03198069e-01 3.03844541e-01 3.04580122e-01 3.05390537e-01 3.06225210e-01 3.07045877e-01 3.07838112e-01 3.08600247e-01 3.09325099e-01 3.10028464e-01 3.10729980e-01 3.11431468e-01 3.12119007e-01 3.12778533e-01 3.13424051e-01 3.14069599e-01 3.14747781e-01 3.15491259e-01 3.16267401e-01 3.17043543e-01 3.17815959e-01 3.18580896e-01 3.19342107e-01 3.20103317e-01 3.20856124e-01 3.21568847e-01 3.22226495e-01 3.22860837e-01 3.23495179e-01 3.24127674e-01 3.24756414e-01 3.25427234e-01 3.26206267e-01 3.27066272e-01 3.27912450e-01 3.28718573e-01 3.29532951e-01 3.30365062e-01 3.31217289e-01 3.32013726e-01 3.32598299e-01 3.33023697e-01 3.33494872e-01 3.34087759e-01 3.34728867e-01 3.35361123e-01 3.36006671e-01 3.36701632e-01 3.37442338e-01 3.38196993e-01 3.38991106e-01 3.39823663e-01 3.40614974e-01 3.41295481e-01 3.41835141e-01 3.42304379e-01 3.42773616e-01 3.43271524e-01 3.43826801e-01 3.44412625e-01 3.45002204e-01 3.45597357e-01 3.46212119e-01 3.46886098e-01 3.47635657e-01 3.48418325e-01 3.49201918e-01 3.49985510e-01 3.50760728e-01 3.51519138e-01 3.52242112e-01 3.52886707e-01 3.53455752e-01 3.54000539e-01 3.54545325e-01 3.55112493e-01 3.55756283e-01 3.56503069e-01 3.57310385e-01 3.58099431e-01 3.58832806e-01 3.59538674e-01 3.60239804e-01 3.60942572e-01 3.61656338e-01 3.62376511e-01 3.63096654e-01 3.63800049e-01 3.64466399e-01 3.65114897e-01 3.65786403e-01 3.66525233e-01 3.67348820e-01 3.68212193e-01 3.69056433e-01 3.69847953e-01 3.70595574e-01 3.71333092e-01 3.72015476e-01 3.72564793e-01 3.73021275e-01 3.73495162e-01 3.74071211e-01 3.74753296e-01 3.75485569e-01 3.76242131e-01 3.77005190e-01 3.77757072e-01 3.78503382e-01 3.79249662e-01 3.79972845e-01 3.80649865e-01 3.81303817e-01 3.81957740e-01 3.82585913e-01 3.83151710e-01 3.83674324e-01 3.84213537e-01 3.84813845e-01 3.85470569e-01 3.86145949e-01 3.86821330e-01 3.87534052e-01 3.88321370e-01 3.89146030e-01 3.89970660e-01 3.90789717e-01 3.91597569e-01 3.92399818e-01 3.93202096e-01 3.93981248e-01 3.94715339e-01 3.95425797e-01 3.96112293e-01 3.96756887e-01 3.97381902e-01 3.98006916e-01 3.98623079e-01 3.99221510e-01 3.99811059e-01 4.00400639e-01 4.00990188e-01 4.01621729e-01 4.02337253e-01 4.03095663e-01 4.03855920e-01 4.04617131e-01 4.05378342e-01 4.06108469e-01 4.06761676e-01 4.07356024e-01 4.07956988e-01 4.08595681e-01 4.09252405e-01 4.09906268e-01 4.10554349e-01 4.11209852e-01 4.11890209e-01 4.12588000e-01 4.13279563e-01 4.13932621e-01 4.14517760e-01 4.15051341e-01 4.15598631e-01 4.16187495e-01 4.16775018e-01 4.17340040e-01 4.17932212e-01 4.18596417e-01 4.19307888e-01 4.20028031e-01 4.20739502e-01 4.21421885e-01 4.22070056e-01 4.22704399e-01 4.23338741e-01 4.23973083e-01 4.24607426e-01 4.25237119e-01 4.25857455e-01 4.26473141e-01 4.27088827e-01 4.27704513e-01 4.28310812e-01 4.28881466e-01 4.29403871e-01 4.29905146e-01 4.30433214e-01 4.31006849e-01 4.31600124e-01 4.32236344e-01 4.32958364e-01 4.33723330e-01 4.34488267e-01 4.35211211e-01 4.35830981e-01 4.36370611e-01 4.36919123e-01 4.37523007e-01 4.38141137e-01 4.38721299e-01 4.39265966e-01 4.39817756e-01 4.40405846e-01 4.41010565e-01 4.41604555e-01 4.42182928e-01 4.42752898e-01 4.43319142e-01 4.43883538e-01 4.44449544e-01 4.45018828e-01 4.45592523e-01 4.46171820e-01 4.46753919e-01 4.47394520e-01 4.48170274e-01 4.49018955e-01 4.49760437e-01 4.50304061e-01 4.50772375e-01 4.51369405e-01 4.52182382e-01 4.53110456e-01 4.53959018e-01 4.54630673e-01 4.55185413e-01 4.55716729e-01 4.56283838e-01 4.56932634e-01 4.57714379e-01 4.58648324e-01 4.59682435e-01 4.60719109e-01 4.61598724e-01 4.62224901e-01 4.62732375e-01 4.63435262e-01 4.64538962e-01 4.65868235e-01 4.67032403e-01 4.67836499e-01 4.68421072e-01 4.69010651e-01 4.69688028e-01 4.70379472e-01 4.71012861e-01 4.71617371e-01 4.72221851e-01 4.72830087e-01 4.73445773e-01 4.74119276e-01 4.74909365e-01 4.75769848e-01 4.76579338e-01 4.77283716e-01 4.77947265e-01 4.78616118e-01 4.79287773e-01 4.79965031e-01 4.80673760e-01 4.81432885e-01 4.82213676e-01 4.82994497e-01 4.83775288e-01 4.84494299e-01 4.85089689e-01 4.85623270e-01 4.86156881e-01 4.86690462e-01 4.87224072e-01 4.87830430e-01 4.88582283e-01 4.89423722e-01 4.90298748e-01 4.91203517e-01 4.92035747e-01 4.92658883e-01 4.93181288e-01 4.93896425e-01 4.94903326e-01 4.96032089e-01 4.97160852e-01 4.98138964e-01 4.98815745e-01 4.99341875e-01 4.99868006e-01 5.00403464e-01 5.00957549e-01 5.01521051e-01 5.02152562e-01 5.02920330e-01 5.03756166e-01 5.04592001e-01 5.05427837e-01 5.06263673e-01 5.07050991e-01 5.07741332e-01 5.08383095e-01 5.09024918e-01 5.09666741e-01 5.10337532e-01 5.11075079e-01 5.11847496e-01 5.12573838e-01 5.13225079e-01 5.13844490e-01 5.14463902e-01 5.15110373e-01 5.15810966e-01 5.16538560e-01 5.17266214e-01 5.17993808e-01 5.18697202e-01 5.19352078e-01 5.19982696e-01 5.20613313e-01 5.21243870e-01 5.21874487e-01 5.22505105e-01 5.23173988e-01 5.23919344e-01 5.24644136e-01 5.25251448e-01 5.25799990e-01 5.26348472e-01 5.26897013e-01 5.27460456e-01 5.28070152e-01 5.28731465e-01 5.29416978e-01 5.30062497e-01 5.30615389e-01 5.31148374e-01 5.31777084e-01 5.32519162e-01 5.33315301e-01 5.34087718e-01 5.34798741e-01 5.35475016e-01 5.36146700e-01 5.36818385e-01 5.37513316e-01 5.38254976e-01 5.39023876e-01 5.39800704e-01 5.40572166e-01 5.41299820e-01 5.41910887e-01 5.42376578e-01 5.42816639e-01 5.43433666e-01 5.44318855e-01 5.45338750e-01 5.46247005e-01 5.46948433e-01 5.47560394e-01 5.48172355e-01 5.48784316e-01 5.49396276e-01 5.50018489e-01 5.50661206e-01 5.51314235e-01 5.51967204e-01 5.52620232e-01 5.53273201e-01 5.53915024e-01 5.54534435e-01 5.55142701e-01 5.55750906e-01 5.56360960e-01 5.56974828e-01 5.57590485e-01 5.58206201e-01 5.58837712e-01 5.59500992e-01 5.60180128e-01 5.60859203e-01 5.61538339e-01 5.62217474e-01 5.62871993e-01 5.63475549e-01 5.64049661e-01 5.64620078e-01 5.65192401e-01 5.65771222e-01 5.66355407e-01 5.66941261e-01 5.67560673e-01 5.68258882e-01 5.69013476e-01 5.69770157e-01 5.70490479e-01 5.71154654e-01 5.71779668e-01 5.72389483e-01 5.72983682e-01 5.73562086e-01 5.74143112e-01 5.74752331e-01 5.75395644e-01 5.76052368e-01 5.76709092e-01 5.77365816e-01 5.78022540e-01 5.78692317e-01 5.79395115e-01 5.80125213e-01 5.80855966e-01 5.81572354e-01 5.82281351e-01 5.82990289e-01 5.83699286e-01 5.84410608e-01 5.85126936e-01 5.85843921e-01 5.86546302e-01 5.87226093e-01 5.87895930e-01 5.88565707e-01 5.89256465e-01 5.89989245e-01 5.90743005e-01 5.91496706e-01 5.92250466e-01 5.92983723e-01 5.93675911e-01 5.94343781e-01 5.95004261e-01 5.95660985e-01 5.96317708e-01 5.96982837e-01 5.97664773e-01 5.98355114e-01 5.99045396e-01 5.99727333e-01 6.00392461e-01 6.01049185e-01 6.01705909e-01 6.02373838e-01 6.03071630e-01 6.03795528e-01 6.04526877e-01 6.05258226e-01 6.05970025e-01 6.06642604e-01 6.07295573e-01 6.07941151e-01 6.08571768e-01 6.09187424e-01 6.09785378e-01 6.10373795e-01 6.10973120e-01 6.11589551e-01 6.12212658e-01 6.12857282e-01 6.13568127e-01 6.14337742e-01 6.15123212e-01 6.15910053e-01 6.16684794e-01 6.17447853e-01 6.18188322e-01 6.18873298e-01 6.19515061e-01 6.20144784e-01 6.20773256e-01 6.21405065e-01 6.22039378e-01 6.22694254e-01 6.23409748e-01 6.24186814e-01 6.24987245e-01 6.25789464e-01 6.26591742e-01 6.27392352e-01 6.28158689e-01 6.28861606e-01 6.29534662e-01 6.30209386e-01 6.30884767e-01 6.31560147e-01 6.32235527e-01 6.32921159e-01 6.33624077e-01 6.34365678e-01 6.35139048e-01 6.35877371e-01 6.36580765e-01 6.37261808e-01 6.37858152e-01 6.38335764e-01 6.38748705e-01 6.39192760e-01 6.39722943e-01 6.40308440e-01 6.40927315e-01 6.41601741e-01 6.42306983e-01 6.43012226e-01 6.43717408e-01 6.44422650e-01 6.45127892e-01 6.45824969e-01 6.46505773e-01 6.47178352e-01 6.47794008e-01 6.48295879e-01 6.48799181e-01 6.49419069e-01 6.50101900e-01 6.50794089e-01 6.51520073e-01 6.52305305e-01 6.53121591e-01 6.53938770e-01 6.54755950e-01 6.55560970e-01 6.56341791e-01 6.57110453e-01 6.57874465e-01 6.58629179e-01 6.59310162e-01 6.59853041e-01 6.60328805e-01 6.60808325e-01 6.61289692e-01 6.61825776e-01 6.62498772e-01 6.63293898e-01 6.64142191e-01 6.64992929e-01 6.65798306e-01 6.66535199e-01 6.67227149e-01 6.67911232e-01 6.68584466e-01 6.69225574e-01 6.69835687e-01 6.70419633e-01 6.70990527e-01 6.71561480e-01 6.72136068e-01 6.72734976e-01 6.73372149e-01 6.74026966e-01 6.74691677e-01 6.75379336e-01 6.76084161e-01 6.76782191e-01 6.77434564e-01 6.78022861e-01 6.78586304e-01 6.79191470e-01 6.79877877e-01 6.80618703e-01 6.81363761e-01 6.82102561e-01 6.82824850e-01 6.83508813e-01 6.84171915e-01 6.84859574e-01 6.85588360e-01 6.86334670e-01 6.87116861e-01 6.87980652e-01 6.88883066e-01 6.89718902e-01 6.90452158e-01 6.91142499e-01 6.91832781e-01 6.92571282e-01 6.93426907e-01 6.94366097e-01 6.95279598e-01 6.96119249e-01 6.96921527e-01 6.97716296e-01 6.98499918e-01 6.99268579e-01 7.00029790e-01 7.00781703e-01 7.01514900e-01 7.02238798e-01 7.02962697e-01 7.03686595e-01 7.04431951e-01 7.05228627e-01 7.06063509e-01 7.06902862e-01 7.07736135e-01 7.08586931e-01 7.09476531e-01 7.10363805e-01 7.11173236e-01 7.11897671e-01 7.12608039e-01 7.13343740e-01 7.14090049e-01 7.14836299e-01 7.15582609e-01 7.16344774e-01 7.17138588e-01 7.17948318e-01 7.18758047e-01 7.19567776e-01 7.20340192e-01 7.21037984e-01 7.21698403e-01 7.22358882e-01 7.23063171e-01 7.23872900e-01 7.24753499e-01 7.25600541e-01 7.26370156e-01 7.27105260e-01 7.27840364e-01 7.28584766e-01 7.29347825e-01 7.30120242e-01 7.30892658e-01 7.31649220e-01 7.32374012e-01 7.33083010e-01 7.33777046e-01 7.34458029e-01 7.35140860e-01 7.35823750e-01 7.36444116e-01 7.37038553e-01 7.37756371e-01 7.38551438e-01 7.39365816e-01 7.40218401e-01 7.41080403e-01 7.41942346e-01 7.42804289e-01 7.43643641e-01 7.44424701e-01 7.45144844e-01 7.45824873e-01 7.46479988e-01 7.47117817e-01 7.47758567e-01 7.48385608e-01 7.48949051e-01 7.49490082e-01 7.50107229e-01 7.50842392e-01 7.51668632e-01 7.52535582e-01 7.53408790e-01 7.54261017e-01 7.55072176e-01 7.55838513e-01 7.56568909e-01 7.57285357e-01 7.57988989e-01 7.58666933e-01 7.59332061e-01 7.59997189e-01 7.60673285e-01 7.61371255e-01 7.62080252e-01 7.62789190e-01 7.63498187e-01 7.64207125e-01 7.64950573e-01 7.65767694e-01 7.66604364e-01 7.67342210e-01 7.67946899e-01 7.68497229e-01 7.69047618e-01 7.69598007e-01 7.70180583e-01 7.70827532e-01 7.71506667e-01 7.72185802e-01 7.72864878e-01 7.73544014e-01 7.74223149e-01 7.74891973e-01 7.75540352e-01 7.76175857e-01 7.76809037e-01 7.77443349e-01 7.78078616e-01 7.78714836e-01 7.79352903e-01 7.80022681e-01 7.80753613e-01 7.81530917e-01 7.82345533e-01 7.83186018e-01 7.84019053e-01 7.84824133e-01 7.85607696e-01 7.86378741e-01 7.87135720e-01 7.87885725e-01 7.88632035e-01 7.89370835e-01 7.90105939e-01 7.90833592e-01 7.91546285e-01 7.92251527e-01 7.92956769e-01 7.93695569e-01 7.94501603e-01 7.95341134e-01 7.96180725e-01 7.96993256e-01 7.97751665e-01 7.98483014e-01 7.99191952e-01 7.99856186e-01 8.00500274e-01 8.01113069e-01 8.01654100e-01 8.02186430e-01 8.02825749e-01 8.03607583e-01 8.04466367e-01 8.05287421e-01 8.06007564e-01 8.06672394e-01 8.07374001e-01 8.08162451e-01 8.08990955e-01 8.09760392e-01 8.10424209e-01 8.11030924e-01 8.11673403e-01 8.12388062e-01 8.13134372e-01 8.13880622e-01 8.14599872e-01 8.15251768e-01 8.15851033e-01 8.16455603e-01 8.17095399e-01 8.17750931e-01 8.18398476e-01 8.19019616e-01 8.19602013e-01 8.20187867e-01 8.20850194e-01 8.21593463e-01 8.22374701e-01 8.23184311e-01 8.24020743e-01 8.24880242e-01 8.25749636e-01 8.26597929e-01 8.27401340e-01 8.28144670e-01 8.28832030e-01 8.29482138e-01 8.30108106e-01 8.30724716e-01 8.31341326e-01 8.31961215e-01 8.32647324e-01 8.33459377e-01 8.34334433e-01 8.35209429e-01 8.36078823e-01 8.36907208e-01 8.37659836e-01 8.38361561e-01 8.39042544e-01 8.39694619e-01 8.40317130e-01 8.40928912e-01 8.41552734e-01 8.42197061e-01 8.42850029e-01 8.43503058e-01 8.44215930e-01 8.45065594e-01 8.46007168e-01 8.46939981e-01 8.47759962e-01 8.48405778e-01 8.48952949e-01 8.49512577e-01 8.50120723e-01 8.50751340e-01 8.51398766e-01 8.52107704e-01 8.52889478e-01 8.53705466e-01 8.54536176e-01 8.55334222e-01 8.56033385e-01 8.56660068e-01 8.57272029e-01 8.57883990e-01 8.58495951e-01 8.59171331e-01 8.59973550e-01 8.60839248e-01 8.61704946e-01 8.62548232e-01 8.63326252e-01 8.64040852e-01 8.64734888e-01 8.65428925e-01 8.66118789e-01 8.66800189e-01 8.67477477e-01 8.68154705e-01 8.68833840e-01 8.69526982e-01 8.70248795e-01 8.70995104e-01 8.71741414e-01 8.72449756e-01 8.73107553e-01 8.73744845e-01 8.74388874e-01 8.75046372e-01 8.75724554e-01 8.76430690e-01 8.77150893e-01 8.77871037e-01 8.78553271e-01 8.79144907e-01 8.79677117e-01 8.80242348e-01 8.80878448e-01 8.81545961e-01 8.82266581e-01 8.83092940e-01 8.83971334e-01 8.84849191e-01 8.85711133e-01 8.86486053e-01 8.87109995e-01 8.87635767e-01 8.88186395e-01 8.88822973e-01 8.89512897e-01 8.90218973e-01 8.90949190e-01 8.91721725e-01 8.92512202e-01 8.93263042e-01 8.93955290e-01 8.94623220e-01 8.95291150e-01 8.95953715e-01 8.96605670e-01 8.97252440e-01 8.97898138e-01 8.98541331e-01 8.99183154e-01 8.99836481e-01 9.00512755e-01 9.01213229e-01 9.01881576e-01 9.02441323e-01 9.02972400e-01 9.03655887e-01 9.04562354e-01 9.05584276e-01 9.06513393e-01 9.07227337e-01 9.07788813e-01 9.08339322e-01 9.08952653e-01 9.09623384e-01 9.10344481e-01 9.11083281e-01 9.11764264e-01 9.12363172e-01 9.12934959e-01 9.13536370e-01 9.14184272e-01 9.14864480e-01 9.15579379e-01 9.16355491e-01 9.17167723e-01 9.17943299e-01 9.18651879e-01 9.19331014e-01 9.20010090e-01 9.20689225e-01 9.21397805e-01 9.22165334e-01 9.22989368e-01 9.23869967e-01 9.24766421e-01 9.25586402e-01 9.26296949e-01 9.26960886e-01 9.27625000e-01 9.28333521e-01 9.29148555e-01 9.30035055e-01 9.30887401e-01 9.31661189e-01 9.32399988e-01 9.33138847e-01 9.33892548e-01 9.34676170e-01 9.35480297e-01 9.36295629e-01 9.37116504e-01 9.37943757e-01 9.38784301e-01 9.39612687e-01 9.40362096e-01 9.41011548e-01 9.41625535e-01 9.42248940e-01 9.42908823e-01 9.43646371e-01 9.44441140e-01 9.45226610e-01 9.45972621e-01 9.46698070e-01 9.47421968e-01 9.48153317e-01 9.48902190e-01 9.49656785e-01 9.50384498e-01 9.51069534e-01 9.51727509e-01 9.52376783e-01 9.53026652e-01 9.53681231e-01 9.54337955e-01 9.54997480e-01 9.55662608e-01 9.56330538e-01 9.57021773e-01 9.57755029e-01 9.58502233e-01 9.59248483e-01 9.60002244e-01 9.60759759e-01 9.61517215e-01 9.62262571e-01 9.62983668e-01 9.63692665e-01 9.64401603e-01 9.65076983e-01 9.65685248e-01 9.66350377e-01 9.67196465e-01 9.68021095e-01 9.68621850e-01 9.69184577e-01 9.69895184e-01 9.70690012e-01 9.71507192e-01 9.72331822e-01 9.73130345e-01 9.73861575e-01 9.74516094e-01 9.75121558e-01 9.75688696e-01 9.76238608e-01 9.76821899e-01 9.77461755e-01 9.78137791e-01 9.78835762e-01 9.79545057e-01 9.80245173e-01 9.80930269e-01 9.81609404e-01 9.82290149e-01 9.82972562e-01 9.83655393e-01 9.84338284e-01 9.85031366e-01 9.85745013e-01 9.86472666e-01 9.87207711e-01 9.87946570e-01 9.88685369e-01 9.89411116e-01 9.90109861e-01 9.90790844e-01 9.91465271e-01 9.92108285e-01 9.92693841e-01 9.93250787e-01 9.93807673e-01 9.94391918e-01 9.95030642e-01 9.95756209e-01 9.96547282e-01 9.97290969e-01 9.97981310e-01 9.98665094e-01 9.99335825e-01 1.00000000e+00 
            </Histogram>
            <HistogramBinning NBins="1437">
              -9.32760048e+00 -9.32750034e+00 -8.06499958e+00 -7.88000011e+00 -7.53499985e+00 -7.35500002e+00 -7.29500008e+00 -7.17999983e+00 -7.06099987e+00 -7.00500011e+00 -6.89699984e+00 -6.82999992e+00 -6.76499987e+00 -6.65500021e+00 -6.63649988e+00 -6.53700018e+00 -6.48000002e+00 -6.45650005e+00 -6.39750004e+00 -6.34999990e+00 -6.30499983e+00 -6.25500011e+00 -6.22249985e+00 -6.17600012e+00 -6.16499996e+00 -6.08879995e+00 -6.06500006e+00 -6.01200008e+00 -5.99599981e+00 -5.98999977e+00 -5.92649984e+00 -5.88999987e+00 -5.87249994e+00 -5.82600021e+00 -5.82000017e+00 -5.81500006e+00 -5.75150013e+00 -5.72819996e+00 -5.69750023e+00 -5.65100002e+00 -5.65000010e+00 -5.64499998e+00 -5.64039993e+00 -5.57649994e+00 -5.55999994e+00 -5.55319977e+00 -5.52250004e+00 -5.48699999e+00 -5.47599983e+00 -5.46999979e+00 -5.46600008e+00 -5.40150023e+00 -5.40000010e+00 -5.37939978e+00 -5.37820005e+00 -5.34749985e+00 -5.31199980e+00 -5.29500008e+00 -5.29099989e+00 -5.23600006e+00 -5.22650003e+00 -5.21680021e+00 -5.20440006e+00 -5.20319986e+00 -5.17250013e+00 -5.15000010e+00 -5.11999989e+00 -5.11780024e+00 -5.11600018e+00 -5.07200003e+00 -5.05149984e+00 -5.04890013e+00 -5.03000021e+00 -5.02880001e+00 -5.02500010e+00 -4.98600006e+00 -4.94960022e+00 -4.94399977e+00 -4.94220018e+00 -4.94099998e+00 -4.94040012e+00 -4.93249989e+00 -4.85680008e+00 -4.85500002e+00 -4.85379982e+00 -4.84999990e+00 -4.82200003e+00 -4.81389999e+00 -4.81150007e+00 -4.76900005e+00 -4.76779985e+00 -4.76660013e+00 -4.76599979e+00 -4.70499992e+00 -4.70009995e+00 -4.68249989e+00 -4.68179989e+00 -4.68060017e+00 -4.67939997e+00 -4.67819977e+00 -4.65799999e+00 -4.63950014e+00 -4.60080004e+00 -4.59399986e+00 -4.59280014e+00 -4.59219980e+00 -4.59100008e+00 -4.56150007e+00 -4.52540016e+00 -4.51849985e+00 -4.51359987e+00 -4.50680017e+00 -4.50559998e+00 -4.50439978e+00 -4.50379992e+00 -4.45499992e+00 -4.43820000e+00 -4.42640018e+00 -4.41960001e+00 -4.41839981e+00 -4.41779995e+00 -4.41720009e+00 -4.39750004e+00 -4.37790012e+00 -4.36000013e+00 -4.35449982e+00 -4.35099983e+00 -4.33239985e+00 -4.33179998e+00 -4.33059978e+00 -4.32999992e+00 -4.32940006e+00 -4.29099989e+00 -4.27540016e+00 -4.26380014e+00 -4.24639988e+00 -4.24459982e+00 -4.24340010e+00 -4.24280024e+00 -4.24219990e+00 -4.23350000e+00 -4.21500015e+00 -4.19600010e+00 -4.18820000e+00 -4.17659998e+00 -4.15859985e+00 -4.15740013e+00 -4.15619993e+00 -4.15560007e+00 -4.12699986e+00 -4.11140013e+00 -4.10099983e+00 -4.09399986e+00 -4.08939981e+00 -4.08319998e+00 -4.07079983e+00 -4.06960011e+00 -4.06899977e+00 -4.06780005e+00 -4.03200006e+00 -4.02419996e+00 -4.01380014e+00 -4.00220013e+00 -3.99040008e+00 -3.98749995e+00 -3.98359990e+00 -3.98239994e+00 -3.98180008e+00 -3.98119998e+00 -3.98060012e+00 -3.94740009e+00 -3.93700004e+00 -3.92659998e+00 -3.91499996e+00 -3.90319991e+00 -3.89639997e+00 -3.89520001e+00 -3.89459991e+00 -3.89339995e+00 -3.89249992e+00 -3.86649990e+00 -3.86019993e+00 -3.85470009e+00 -3.84980011e+00 -3.83940005e+00 -3.82780004e+00 -3.80979991e+00 -3.80800009e+00 -3.80789995e+00 -3.80739999e+00 -3.80679989e+00 -3.80620003e+00 -3.77300000e+00 -3.76259995e+00 -3.75999999e+00 -3.75219989e+00 -3.74060011e+00 -3.73440003e+00 -3.72259998e+00 -3.72140002e+00 -3.72070003e+00 -3.72020006e+00 -3.71959996e+00 -3.71900010e+00 -3.68689990e+00 -3.68580008e+00 -3.67540002e+00 -3.66499996e+00 -3.65370011e+00 -3.65339994e+00 -3.63599992e+00 -3.63420010e+00 -3.63360000e+00 -3.63350010e+00 -3.63240004e+00 -3.63179994e+00 -3.59969997e+00 -3.59859991e+00 -3.58820009e+00 -3.58039999e+00 -3.57780004e+00 -3.56999993e+00 -3.56620002e+00 -3.54819989e+00 -3.54699993e+00 -3.54640007e+00 -3.54629993e+00 -3.54520011e+00 -3.54460001e+00 -3.51250005e+00 -3.51139998e+00 -3.50099993e+00 -3.49320006e+00 -3.49060011e+00 -3.48539996e+00 -3.47900009e+00 -3.46160007e+00 -3.46040010e+00 -3.45919991e+00 -3.45910001e+00 -3.45860004e+00 -3.45799994e+00 -3.45740008e+00 -3.42529988e+00 -3.42420006e+00 -3.41380000e+00 -3.40599990e+00 -3.40339994e+00 -3.39820004e+00 -3.39179993e+00 -3.38560009e+00 -3.37380004e+00 -3.37260008e+00 -3.37199998e+00 -3.37190008e+00 -3.37080002e+00 -3.37019992e+00 -3.33809996e+00 -3.33699989e+00 -3.32660007e+00 -3.31879997e+00 -3.31620002e+00 -3.31360006e+00 -3.31100011e+00 -3.30460000e+00 -3.29279995e+00 -3.28600001e+00 -3.28539991e+00 -3.28469992e+00 -3.28419995e+00 -3.28360009e+00 -3.28299999e+00 -3.25090003e+00 -3.24979997e+00 -3.23939991e+00 -3.23160005e+00 -3.22900009e+00 -3.22639990e+00 -3.22379994e+00 -3.21740007e+00 -3.20560002e+00 -3.19880009e+00 -3.19759989e+00 -3.19749999e+00 -3.19700003e+00 -3.19639993e+00 -3.19580007e+00 -3.16370010e+00 -3.16260004e+00 -3.15219998e+00 -3.14439988e+00 -3.14179993e+00 -3.13919997e+00 -3.13660002e+00 -3.13019991e+00 -3.11840010e+00 -3.11159992e+00 -3.11039996e+00 -3.11030006e+00 -3.10980010e+00 -3.10920000e+00 -3.10859990e+00 -3.07649994e+00 -3.07540011e+00 -3.06500006e+00 -3.05719995e+00 -3.05460000e+00 -3.05200005e+00 -3.04940009e+00 -3.04299998e+00 -3.03679991e+00 -3.02440000e+00 -3.02379990e+00 -3.02309990e+00 -3.02259994e+00 -3.02200007e+00 -3.02139997e+00 -2.98930001e+00 -2.98819995e+00 -2.97779989e+00 -2.97749996e+00 -2.96740007e+00 -2.96479988e+00 -2.96219993e+00 -2.95580006e+00 -2.94959998e+00 -2.93720007e+00 -2.93659997e+00 -2.93589997e+00 -2.93540001e+00 -2.93479991e+00 -2.93420005e+00 -2.90210009e+00 -2.90100002e+00 -2.89059997e+00 -2.88280010e+00 -2.88019991e+00 -2.87759995e+00 -2.87500000e+00 -2.86859989e+00 -2.86500001e+00 -2.84999990e+00 -2.84940004e+00 -2.84870005e+00 -2.84820008e+00 -2.84759998e+00 -2.84699988e+00 -2.81489992e+00 -2.81380010e+00 -2.80340004e+00 -2.79559994e+00 -2.79299998e+00 -2.79040003e+00 -2.78780007e+00 -2.78139997e+00 -2.76999998e+00 -2.76279998e+00 -2.76220012e+00 -2.76160002e+00 -2.76149988e+00 -2.76040006e+00 -2.75979996e+00 -2.72770000e+00 -2.72659993e+00 -2.71620011e+00 -2.70840001e+00 -2.70580006e+00 -2.70320010e+00 -2.70059991e+00 -2.69420004e+00 -2.68499994e+00 -2.67560005e+00 -2.67440009e+00 -2.67429996e+00 -2.67379999e+00 -2.67319989e+00 -2.67260003e+00 -2.64050007e+00 -2.63940001e+00 -2.62899995e+00 -2.62120008e+00 -2.61859989e+00 -2.61599994e+00 -2.61339998e+00 -2.60700011e+00 -2.58999991e+00 -2.58839989e+00 -2.58719993e+00 -2.58710003e+00 -2.58660007e+00 -2.58599997e+00 -2.58540010e+00 -2.55329990e+00 -2.55220008e+00 -2.54250002e+00 -2.54180002e+00 -2.53399992e+00 -2.53139997e+00 -2.52880001e+00 -2.52620006e+00 -2.51979995e+00 -2.50500011e+00 -2.50060010e+00 -2.49990010e+00 -2.49939990e+00 -2.49880004e+00 -2.49819994e+00 -2.46609998e+00 -2.46499991e+00 -2.45460010e+00 -2.44679999e+00 -2.44650006e+00 -2.44420004e+00 -2.44160008e+00 -2.43899989e+00 -2.43260002e+00 -2.41459990e+00 -2.41339993e+00 -2.41280007e+00 -2.41269994e+00 -2.41160011e+00 -2.41100001e+00 -2.41000009e+00 -2.37890005e+00 -2.37779999e+00 -2.36739993e+00 -2.36249995e+00 -2.35960007e+00 -2.35700011e+00 -2.35439992e+00 -2.35179996e+00 -2.34540009e+00 -2.32999992e+00 -2.32620001e+00 -2.32559991e+00 -2.32550001e+00 -2.32439995e+00 -2.32380009e+00 -2.30349994e+00 -2.29169989e+00 -2.29060006e+00 -2.28020000e+00 -2.27239990e+00 -2.26979995e+00 -2.26749992e+00 -2.26719999e+00 -2.26460004e+00 -2.25819993e+00 -2.23959994e+00 -2.23839998e+00 -2.23830009e+00 -2.23779988e+00 -2.23720002e+00 -2.23659992e+00 -2.22300005e+00 -2.20449996e+00 -2.20339990e+00 -2.19300008e+00 -2.18519998e+00 -2.18260002e+00 -2.18249989e+00 -2.18000007e+00 -2.17740011e+00 -2.17100000e+00 -2.15499997e+00 -2.15179992e+00 -2.15109992e+00 -2.15059996e+00 -2.15000010e+00 -2.14940000e+00 -2.11730003e+00 -2.11619997e+00 -2.10579991e+00 -2.09800005e+00 -2.09540009e+00 -2.09279990e+00 -2.09019995e+00 -2.08380008e+00 -2.07500005e+00 -2.06399989e+00 -2.06389999e+00 -2.06279993e+00 -2.06220007e+00 -2.05999994e+00 -2.03010011e+00 -2.02900004e+00 -2.01859999e+00 -2.01079988e+00 -2.00819993e+00 -2.00749993e+00 -2.00559998e+00 -2.00300002e+00 -1.99660003e+00 -1.98000002e+00 -1.97679996e+00 -1.97669995e+00 -1.97560000e+00 -1.97500002e+00 -1.95350003e+00 -1.94289994e+00 -1.94180000e+00 -1.93139994e+00 -1.92359996e+00 -1.92100000e+00 -1.91840005e+00 -1.91579998e+00 -1.90939999e+00 -1.89499998e+00 -1.88950002e+00 -1.88900006e+00 -1.88839996e+00 -1.88499999e+00 -1.86800003e+00 -1.85570002e+00 -1.85459995e+00 -1.84420002e+00 -1.83640003e+00 -1.83379996e+00 -1.83249998e+00 -1.83120000e+00 -1.82860005e+00 -1.82219994e+00 -1.80499995e+00 -1.80229998e+00 -1.80180001e+00 -1.80060005e+00 -1.77849996e+00 -1.76849997e+00 -1.76740003e+00 -1.75699997e+00 -1.74919999e+00 -1.74660003e+00 -1.74399996e+00 -1.74140000e+00 -1.73500001e+00 -1.71510005e+00 -1.71500003e+00 -1.71399999e+00 -1.71340001e+00 -1.70400000e+00 -1.68130004e+00 -1.68019998e+00 -1.66980004e+00 -1.66199994e+00 -1.65939999e+00 -1.65750003e+00 -1.65680003e+00 -1.65419996e+00 -1.64779997e+00 -1.64499998e+00 -1.62790000e+00 -1.62679994e+00 -1.62619996e+00 -1.60350001e+00 -1.59410000e+00 -1.59300005e+00 -1.58260000e+00 -1.57480001e+00 -1.57219994e+00 -1.56959999e+00 -1.56700003e+00 -1.56060004e+00 -1.54069996e+00 -1.53999996e+00 -1.53960001e+00 -1.53499997e+00 -1.51800001e+00 -1.50689995e+00 -1.50580001e+00 -1.49539995e+00 -1.48759997e+00 -1.48500001e+00 -1.48249996e+00 -1.48239994e+00 -1.47979999e+00 -1.47340000e+00 -1.45500004e+00 -1.45350003e+00 -1.45179999e+00 -1.42850006e+00 -1.41970003e+00 -1.41859996e+00 -1.40820003e+00 -1.40040004e+00 -1.39779997e+00 -1.39520001e+00 -1.39260006e+00 -1.38619995e+00 -1.36629999e+00 -1.36459994e+00 -1.36000001e+00 -1.35399997e+00 -1.33249998e+00 -1.33140004e+00 -1.32099998e+00 -1.31320000e+00 -1.31060004e+00 -1.30799997e+00 -1.30750000e+00 -1.30540001e+00 -1.29900002e+00 -1.27999997e+00 -1.27909994e+00 -1.25349998e+00 -1.24530005e+00 -1.24419999e+00 -1.23380005e+00 -1.22599995e+00 -1.22340000e+00 -1.22080004e+00 -1.21819997e+00 -1.21179998e+00 -1.19190001e+00 -1.19000006e+00 -1.18499994e+00 -1.16799998e+00 -1.15810001e+00 -1.15699995e+00 -1.14660001e+00 -1.13880002e+00 -1.13619995e+00 -1.13360000e+00 -1.13250005e+00 -1.13100004e+00 -1.12460005e+00 -1.10469997e+00 -1.07850003e+00 -1.07089996e+00 -1.05999994e+00 -1.05939996e+00 -1.05159998e+00 -1.04900002e+00 -1.04639995e+00 -1.04380000e+00 -1.03999996e+00 -1.01750004e+00 -1.00399995e+00 -9.83699977e-01 -9.82599974e-01 -9.72199976e-01 -9.64399993e-01 -9.61799979e-01 -9.59200025e-01 -9.57499981e-01 -9.56600010e-01 -9.44999993e-01 -9.30299997e-01 -8.96499991e-01 -8.95399988e-01 -8.84999990e-01 -8.75000000e-01 -8.74599993e-01 -8.71999979e-01 -8.69400024e-01 -8.43100011e-01 -8.38500023e-01 -8.28999996e-01 -8.18000019e-01 -8.09300005e-01 -8.08200002e-01 -7.90000021e-01 -7.84799993e-01 -7.82199979e-01 -7.55900025e-01 -7.22100019e-01 -7.21000016e-01 -7.17499971e-01 -7.10600019e-01 -7.02799976e-01 -6.97600007e-01 -6.94999993e-01 -6.68699980e-01 -6.65000021e-01 -6.34899974e-01 -6.33800030e-01 -6.25999987e-01 -6.10400021e-01 -6.07800007e-01 -5.89999974e-01 -5.81499994e-01 -5.78000009e-01 -5.47699988e-01 -5.31000018e-01 -5.28400004e-01 -5.24999976e-01 -5.23199975e-01 -5.20600021e-01 -4.94300008e-01 -4.90000010e-01 -4.67500001e-01 -4.60500002e-01 -4.35999990e-01 -4.33400005e-01 -4.24499989e-01 -4.14999992e-01 -4.14000005e-01 -3.73299986e-01 -3.67000014e-01 -3.49999994e-01 -3.48800004e-01 -3.46199989e-01 -3.28000009e-01 -3.03499997e-01 -2.86100000e-01 -2.66799986e-01 -2.61599988e-01 -2.60500014e-01 -2.59000003e-01 -2.50000000e-01 -2.27500007e-01 -2.01499999e-01 -1.74999997e-01 -1.74400002e-01 -1.71800002e-01 -1.64000005e-01 -1.39500007e-01 -1.20999999e-01 -1.06500000e-01 -8.72000009e-02 -8.46000016e-02 0.00000000e+00 8.46000016e-02 8.72000009e-02 9.49999988e-02 1.06500000e-01 1.20999999e-01 1.39500007e-01 1.64000005e-01 1.71800002e-01 1.74400002e-01 1.74999997e-01 1.79600000e-01 2.01499999e-01 2.39999995e-01 2.50000000e-01 2.60500014e-01 2.61599988e-01 2.66799986e-01 2.86100000e-01 3.03499997e-01 3.22499990e-01 3.46199989e-01 3.48800004e-01 3.49999994e-01 3.54000002e-01 3.67000014e-01 3.73299986e-01 4.14000005e-01 4.14999992e-01 4.24499989e-01 4.33400005e-01 4.35999990e-01 4.41199988e-01 4.60500002e-01 4.67500001e-01 4.90000010e-01 4.94300008e-01 5.23199975e-01 5.24999976e-01 5.28400004e-01 5.31000018e-01 5.46599984e-01 5.78000009e-01 5.81499994e-01 5.88500023e-01 6.07800007e-01 6.10400021e-01 6.15599990e-01 6.25999987e-01 6.33800030e-01 6.34899974e-01 6.53999984e-01 6.68699980e-01 6.94999993e-01 6.97600007e-01 6.99999988e-01 7.02799976e-01 7.10600019e-01 7.17499971e-01 7.21000016e-01 7.55900025e-01 7.64999986e-01 7.84799993e-01 7.90000021e-01 7.97800004e-01 8.08200002e-01 8.09300005e-01 8.18000019e-01 8.28999996e-01 8.38500023e-01 8.43100011e-01 8.71999979e-01 8.74599993e-01 8.75000000e-01 8.77200007e-01 8.84999990e-01 8.96499991e-01 9.30299997e-01 9.39999998e-01 9.44999993e-01 9.57499981e-01 9.59200025e-01 9.61799979e-01 9.64399993e-01 9.72199976e-01 9.82599974e-01 9.83699977e-01 9.92999971e-01 1.01499999e+00 1.01750004e+00 1.03999996e+00 1.04639995e+00 1.04900002e+00 1.04999995e+00 1.05159998e+00 1.05939996e+00 1.06980002e+00 1.07850003e+00 1.10469997e+00 1.12460005e+00 1.13100004e+00 1.13250005e+00 1.13360000e+00 1.13619995e+00 1.13880002e+00 1.14660001e+00 1.15699995e+00 1.15810001e+00 1.16799998e+00 1.18499994e+00 1.19190001e+00 1.21179998e+00 1.21819997e+00 1.22080004e+00 1.22340000e+00 1.22599995e+00 1.23380005e+00 1.24419999e+00 1.24530005e+00 1.25349998e+00 1.27909994e+00 1.27999997e+00 1.29900002e+00 1.30540001e+00 1.30799997e+00 1.31060004e+00 1.31320000e+00 1.32099998e+00 1.33140004e+00 1.33249998e+00 1.34300005e+00 1.36000001e+00 1.36459994e+00 1.36629999e+00 1.38619995e+00 1.39260006e+00 1.39520001e+00 1.39779997e+00 1.40040004e+00 1.40499997e+00 1.40820003e+00 1.41859996e+00 1.41970003e+00 1.42850006e+00 1.45350003e+00 1.45500004e+00 1.47340000e+00 1.47979999e+00 1.48239994e+00 1.48249996e+00 1.48500001e+00 1.48759997e+00 1.49539995e+00 1.50580001e+00 1.50689995e+00 1.51800001e+00 1.53499997e+00 1.53900003e+00 1.53999996e+00 1.54069996e+00 1.56060004e+00 1.56959999e+00 1.57219994e+00 1.57480001e+00 1.58260000e+00 1.58500004e+00 1.59410000e+00 1.60350001e+00 1.62619996e+00 1.62679994e+00 1.62790000e+00 1.63000000e+00 1.64779997e+00 1.65419996e+00 1.65680003e+00 1.65750003e+00 1.65939999e+00 1.66199994e+00 1.66980004e+00 1.67750001e+00 1.68130004e+00 1.69299996e+00 1.71000004e+00 1.71340001e+00 1.71459997e+00 1.71510005e+00 1.73500001e+00 1.74140000e+00 1.74399996e+00 1.74660003e+00 1.74919999e+00 1.75699997e+00 1.76740003e+00 1.76849997e+00 1.77849996e+00 1.80060005e+00 1.80120003e+00 1.80229998e+00 1.80499995e+00 1.82219994e+00 1.82860005e+00 1.83120000e+00 1.83249998e+00 1.83379996e+00 1.83640003e+00 1.84420002e+00 1.85249996e+00 1.85570002e+00 1.86800003e+00 1.88499999e+00 1.88779998e+00 1.88900006e+00 1.88950002e+00 1.88960004e+00 1.90939999e+00 1.91579998e+00 1.91840005e+00 1.92100000e+00 1.92359996e+00 1.93139994e+00 1.94180000e+00 1.94289994e+00 1.95350003e+00 1.97500002e+00 1.97560000e+00 1.97669995e+00 1.97679996e+00 1.98000002e+00 1.99660003e+00 2.00300002e+00 2.00559998e+00 2.00749993e+00 2.00819993e+00 2.01079988e+00 2.01859999e+00 2.02749991e+00 2.02900004e+00 2.03010011e+00 2.05999994e+00 2.06220007e+00 2.06279993e+00 2.06389999e+00 2.06399989e+00 2.06459999e+00 2.08380008e+00 2.09019995e+00 2.09279990e+00 2.09540009e+00 2.09800005e+00 2.10579991e+00 2.11619997e+00 2.11730003e+00 2.12849998e+00 2.14940000e+00 2.15000010e+00 2.15109992e+00 2.15120006e+00 2.15179992e+00 2.17100000e+00 2.17740011e+00 2.18000007e+00 2.18249989e+00 2.18260002e+00 2.18519998e+00 2.19300008e+00 2.20339990e+00 2.20449996e+00 2.22300005e+00 2.23659992e+00 2.23720002e+00 2.23779988e+00 2.23830009e+00 2.23900008e+00 2.25819993e+00 2.26460004e+00 2.26719999e+00 2.26749992e+00 2.27239990e+00 2.28020000e+00 2.28250003e+00 2.29060006e+00 2.29169989e+00 2.32380009e+00 2.32439995e+00 2.32550001e+00 2.32559991e+00 2.32620001e+00 2.32999992e+00 2.34540009e+00 2.35179996e+00 2.35439992e+00 2.35700011e+00 2.35960007e+00 2.36249995e+00 2.36739993e+00 2.37779999e+00 2.37890005e+00 2.40300012e+00 2.41100001e+00 2.41160011e+00 2.41269994e+00 2.41280007e+00 2.41339993e+00 2.43260002e+00 2.43899989e+00 2.44160008e+00 2.44420004e+00 2.44650006e+00 2.44679999e+00 2.45460010e+00 2.46499991e+00 2.46609998e+00 2.48350000e+00 2.49819994e+00 2.49880004e+00 2.49990010e+00 2.50000000e+00 2.50060010e+00 2.50500011e+00 2.51979995e+00 2.52620006e+00 2.52880001e+00 2.53139997e+00 2.53399992e+00 2.54180002e+00 2.54250002e+00 2.55220008e+00 2.55329990e+00 2.58540010e+00 2.58599997e+00 2.58710003e+00 2.58719993e+00 2.58780003e+00 2.58899999e+00 2.60700011e+00 2.61339998e+00 2.61599994e+00 2.61859989e+00 2.62120008e+00 2.62899995e+00 2.63940001e+00 2.64050007e+00 2.66350007e+00 2.67260003e+00 2.67379999e+00 2.67429996e+00 2.67440009e+00 2.67499995e+00 2.67680001e+00 2.69420004e+00 2.70059991e+00 2.70320010e+00 2.70580006e+00 2.70840001e+00 2.71620011e+00 2.72659993e+00 2.72770000e+00 2.75000000e+00 2.76040006e+00 2.76099992e+00 2.76149988e+00 2.76160002e+00 2.76279998e+00 2.76399994e+00 2.78139997e+00 2.78780007e+00 2.79040003e+00 2.79299998e+00 2.79559994e+00 2.80340004e+00 2.81380010e+00 2.81489992e+00 2.84549999e+00 2.84699988e+00 2.84759998e+00 2.84870005e+00 2.84879994e+00 2.84940004e+00 2.85060000e+00 2.86859989e+00 2.87500000e+00 2.87759995e+00 2.88019991e+00 2.88280010e+00 2.89059997e+00 2.90100002e+00 2.90210009e+00 2.93420005e+00 2.93479991e+00 2.93540001e+00 2.93589997e+00 2.93600011e+00 2.93659997e+00 2.93840003e+00 2.95580006e+00 2.96219993e+00 2.96479988e+00 2.96740007e+00 2.97000003e+00 2.97779989e+00 2.98499990e+00 2.98930001e+00 3.02139997e+00 3.02200007e+00 3.02259994e+00 3.02309990e+00 3.02320004e+00 3.02379990e+00 3.02500010e+00 3.04299998e+00 3.04940009e+00 3.05200005e+00 3.05460000e+00 3.05719995e+00 3.06500006e+00 3.07249999e+00 3.07540011e+00 3.07649994e+00 3.10859990e+00 3.10920000e+00 3.11030006e+00 3.11039996e+00 3.11100006e+00 3.11279988e+00 3.13019991e+00 3.13660002e+00 3.13919997e+00 3.14179993e+00 3.14439988e+00 3.15219998e+00 3.15709996e+00 3.16370010e+00 3.19580007e+00 3.19639993e+00 3.19700003e+00 3.19749999e+00 3.19759989e+00 3.19819999e+00 3.19880009e+00 3.21120000e+00 3.21740007e+00 3.22639990e+00 3.22900009e+00 3.23160005e+00 3.23939991e+00 3.24429989e+00 3.25090003e+00 3.28299999e+00 3.28360009e+00 3.28419995e+00 3.28469992e+00 3.28480005e+00 3.28539991e+00 3.28660011e+00 3.30460000e+00 3.30749989e+00 3.31360006e+00 3.31620002e+00 3.31879997e+00 3.32660007e+00 3.33699989e+00 3.33809996e+00 3.37019992e+00 3.37080002e+00 3.37140012e+00 3.37190008e+00 3.37199998e+00 3.37319994e+00 3.38000011e+00 3.39179993e+00 3.39820004e+00 3.40339994e+00 3.40599990e+00 3.41380000e+00 3.41869998e+00 3.42529988e+00 3.45740008e+00 3.45799994e+00 3.45860004e+00 3.45910001e+00 3.45980000e+00 3.46040010e+00 3.46720004e+00 3.47900009e+00 3.49060011e+00 3.49320006e+00 3.50099993e+00 3.51139998e+00 3.51250005e+00 3.54460001e+00 3.54520011e+00 3.54579997e+00 3.54629993e+00 3.54640007e+00 3.54760003e+00 3.54879999e+00 3.56620002e+00 3.56999993e+00 3.57780004e+00 3.58820009e+00 3.59859991e+00 3.59969997e+00 3.63179994e+00 3.63240004e+00 3.63299990e+00 3.63350010e+00 3.63360000e+00 3.63420010e+00 3.63599992e+00 3.65339994e+00 3.66499996e+00 3.67540002e+00 3.68030000e+00 3.68689990e+00 3.71900010e+00 3.71959996e+00 3.72020006e+00 3.72079992e+00 3.72140002e+00 3.72320008e+00 3.74060011e+00 3.75219989e+00 3.75999999e+00 3.76259995e+00 3.77150011e+00 3.77300000e+00 3.80620003e+00 3.80679989e+00 3.80739999e+00 3.80800009e+00 3.80859995e+00 3.80979991e+00 3.82780004e+00 3.83940005e+00 3.84980011e+00 3.86019993e+00 3.86649990e+00 3.89249992e+00 3.89339995e+00 3.89400005e+00 3.89459991e+00 3.89580011e+00 3.89639997e+00 3.91499996e+00 3.91529989e+00 3.93700004e+00 3.94190001e+00 3.97300005e+00 3.98060012e+00 3.98119998e+00 3.98239994e+00 3.98300004e+00 3.98480010e+00 3.98749995e+00 4.00220013e+00 4.01380014e+00 4.02419996e+00 4.03200006e+00 4.06780005e+00 4.06839991e+00 4.06899977e+00 4.07019997e+00 4.07140017e+00 4.08939981e+00 4.09399986e+00 4.10099983e+00 4.11140013e+00 