<?xml version="1.0"?>
<MethodSetup Method="MLP::MLP_3">
  <GeneralInfo>
    <Info name="TMVA Release" value="4.2.1 [262657]"/>
    <Info name="ROOT Release" value="6.12/07 [396295]"/>
    <Info name="Creator" value="addropul"/>
    <Info name="Date" value="Wed Feb 19 16:44:29 2020"/>
    <Info name="Host" value="Linux cmsbuild89.cern.ch 2.6.32-696.30.1.el6.x86_64 #1 SMP Tue May 22 06:09:36 CEST 2018 x86_64 x86_64 x86_64 GNU/Linux"/>
    <Info name="Dir" value="/afs/cern.ch/user/a/addropul/CMSSW_10_6_0_pre4/src/L1Trigger/Run3Ntuplizer/test/June_July_2019"/>
    <Info name="Training events" value="368224"/>
    <Info name="TrainingTime" value="1.42428872e+02"/>
    <Info name="AnalysisType" value="Classification"/>
  </GeneralInfo>
  <Options>
    <Option name="NCycles" modified="Yes">600</Option>
    <Option name="HiddenLayers" modified="Yes">N+5</Option>
    <Option name="NeuronType" modified="Yes">tanh</Option>
    <Option name="RandomSeed" modified="No">1</Option>
    <Option name="EstimatorType" modified="No">CE</Option>
    <Option name="NeuronInputType" modified="No">sum</Option>
    <Option name="V" modified="Yes">False</Option>
    <Option name="VerbosityLevel" modified="No">Default</Option>
    <Option name="VarTransform" modified="Yes">Decorrelate</Option>
    <Option name="H" modified="Yes">True</Option>
    <Option name="CreateMVAPdfs" modified="No">False</Option>
    <Option name="IgnoreNegWeightsInTraining" modified="No">False</Option>
    <Option name="TrainingMethod" modified="No">BP</Option>
    <Option name="LearningRate" modified="No">2.000000e-02</Option>
    <Option name="DecayRate" modified="No">1.000000e-02</Option>
    <Option name="TestRate" modified="Yes">5</Option>
    <Option name="EpochMonitoring" modified="No">False</Option>
    <Option name="Sampling" modified="No">1.000000e+00</Option>
    <Option name="SamplingEpoch" modified="No">1.000000e+00</Option>
    <Option name="SamplingImportance" modified="No">1.000000e+00</Option>
    <Option name="SamplingTraining" modified="No">True</Option>
    <Option name="SamplingTesting" modified="No">False</Option>
    <Option name="ResetStep" modified="No">50</Option>
    <Option name="Tau" modified="No">3.000000e+00</Option>
    <Option name="BPMode" modified="No">sequential</Option>
    <Option name="BatchSize" modified="No">-1</Option>
    <Option name="ConvergenceImprove" modified="No">1.000000e-30</Option>
    <Option name="ConvergenceTests" modified="Yes">10</Option>
    <Option name="UseRegulator" modified="Yes">False</Option>
    <Option name="UpdateLimit" modified="No">10000</Option>
    <Option name="CalculateErrors" modified="No">False</Option>
    <Option name="WeightRange" modified="No">1.000000e+00</Option>
  </Options>
  <Variables NVar="5">
    <Variable VarIndex="0" Expression="l1Pt_1" Label="l1Pt_1" Title="l1Pt_1" Unit="" Internal="l1Pt_1" Type="D" Min="5.50000000e+00" Max="5.11500000e+02"/>
    <Variable VarIndex="1" Expression="l1Pt_2" Label="l1Pt_2" Title="l1Pt_2" Unit="" Internal="l1Pt_2" Type="D" Min="5.50000000e+00" Max="5.11500000e+02"/>
    <Variable VarIndex="2" Expression="l1DeltaEta" Label="l1DeltaEta" Title="l1DeltaEta" Unit="" Internal="l1DeltaEta" Type="D" Min="-9.32750034e+00" Max="1.01850004e+01"/>
    <Variable VarIndex="3" Expression="l1DeltaPhi" Label="l1DeltaPhi" Title="l1DeltaPhi" Unit="" Internal="l1DeltaPhi" Type="D" Min="-6.19119978e+00" Max="6.19119978e+00"/>
    <Variable VarIndex="4" Expression="l1Mass" Label="l1Mass" Title="l1Mass" Unit="" Internal="l1Mass" Type="D" Min="6.71710211e-07" Max="7.86377637e+03"/>
  </Variables>
  <Spectators NSpec="0"/>
  <Classes NClass="2">
    <Class Name="Signal" Index="0"/>
    <Class Name="Background" Index="1"/>
  </Classes>
  <Transformations NTransformations="1">
    <Transform Name="Decorrelation">
      <Selection>
        <Input NInputs="5">
          <Input Type="Variable" Label="l1Pt_1" Expression="l1Pt_1"/>
          <Input Type="Variable" Label="l1Pt_2" Expression="l1Pt_2"/>
          <Input Type="Variable" Label="l1DeltaEta" Expression="l1DeltaEta"/>
          <Input Type="Variable" Label="l1DeltaPhi" Expression="l1DeltaPhi"/>
          <Input Type="Variable" Label="l1Mass" Expression="l1Mass"/>
        </Input>
        <Output NOutputs="5">
          <Output Type="Variable" Label="l1Pt_1" Expression="l1Pt_1"/>
          <Output Type="Variable" Label="l1Pt_2" Expression="l1Pt_2"/>
          <Output Type="Variable" Label="l1DeltaEta" Expression="l1DeltaEta"/>
          <Output Type="Variable" Label="l1DeltaPhi" Expression="l1DeltaPhi"/>
          <Output Type="Variable" Label="l1Mass" Expression="l1Mass"/>
        </Output>
      </Selection>
      <Matrix Rows="5" Columns="5">
        2.294501311364246e-02 -9.960130636480356e-03 -8.466967258075036e-05 -7.365723431577817e-05 -6.605719327802614e-04 -9.960130636480356e-03 3.483635557248362e-02 1.578674910363569e-04 -3.611471708778791e-06 -6.478337378159465e-04 -8.466967258075036e-05 1.578674910363568e-04 3.451071266926133e-01 -5.691254148402812e-04 -1.355317913901235e-05 -7.365723431577817e-05 -3.611471708778798e-06 -5.691254148402844e-04 3.353179603427991e-01 8.677560333762725e-06 -6.605719327802613e-04 -6.478337378159468e-04 -1.355317913901235e-05 8.677560333762725e-06 2.601772059399072e-03 
      </Matrix>
      <Matrix Rows="5" Columns="5">
        5.090670843648606e-02 -1.456972083672074e-02 2.705584800426971e-04 -3.156549068315056e-04 -6.177241221029365e-04 -1.456972083672074e-02 5.906969061115760e-02 7.829757127059444e-04 -7.753345654681319e-04 -6.770521095363415e-04 2.705584800426971e-04 7.829757127059444e-04 3.102835227519644e-01 -7.656819537711233e-03 4.882011509318431e-05 -3.156549068315056e-04 -7.753345654681321e-04 -7.656819537711239e-03 3.566012126813026e-01 9.935801741353092e-05 -6.177241221029365e-04 -6.770521095363415e-04 4.882011509318431e-05 9.935801741353095e-05 3.102332095058014e-03 
      </Matrix>
      <Matrix Rows="5" Columns="5">
        2.696653409020355e-02 -1.271435987268464e-02 -4.161309846578632e-05 5.661992921237684e-06 -7.202307057642655e-04 -1.271435987268464e-02 4.204993474945168e-02 3.175456322216716e-04 -1.923291454446567e-04 -7.003043585405184e-04 -4.161309846578633e-05 3.175456322216716e-04 3.261783538640612e-01 -4.233580545396836e-03 1.713935429034147e-05 5.661992921237730e-06 -1.923291454446568e-04 -4.233580545396824e-03 3.453447540380792e-01 4.508802448314232e-05 -7.202307057642654e-04 -7.003043585405184e-04 1.713935429034146e-05 4.508802448314232e-05 2.789172842542244e-03 
      </Matrix>
    </Transform>
  </Transformations>
  <MVAPdfs/>
  <Weights>
    <Layout NLayers="3">
      <Layer Index="0" NNeurons="6">
        <Neuron NSynapses="10">
          4.3204302048024601e+01 8.8351607943413555e+01 -9.2761879088783232e+01 5.3241347148530567e+00 -2.3755381700311253e+00 -9.6530127116283467e+01 1.2898559990716274e+01 -5.1043109463910632e+01 4.6554148214123664e+01 2.5546456873388802e+01 
        </Neuron>
        <Neuron NSynapses="10">
          3.9711130814555943e+01 2.4841061538482517e+01 -8.9138752361520403e+01 6.8326979307504857e+01 -1.2757199736371339e+00 3.0907114444351125e+00 3.9813223783723894e+00 -1.2253069006706049e+01 1.8619488119753516e+01 5.3040831593346617e+01 
        </Neuron>
        <Neuron NSynapses="10">
          1.0264587545920822e+00 -1.6609986899420164e+01 1.2154140744838779e+01 3.1916436124519812e+01 -5.2438371586053530e-02 1.2458080878304408e+01 8.0084490058218393e+01 -5.8146096979803026e+01 -6.1944287394396849e+00 7.4741004115346570e+01 
        </Neuron>
        <Neuron NSynapses="10">
          4.8882851293437293e+00 1.9080704176022152e+01 2.3714692231277898e+00 -4.0211580378092853e+00 -1.2350490771975559e-02 -1.6186317001281749e+00 -1.5774059268065971e+01 -1.4699136422381335e+01 -1.2691772731775169e+01 2.7872384083407487e+00 
        </Neuron>
        <Neuron NSynapses="10">
          -3.9923832396441206e+01 4.4395942489234507e+01 -1.9365134490978757e+01 5.0821183022356635e+01 -1.1625104709611569e+00 -5.9744111528463115e+01 4.2979668015765448e+01 6.8043657208482003e+01 6.2916890135086639e+01 1.0939194364400422e+00 
        </Neuron>
        <Neuron NSynapses="10">
          -1.9833911122801413e+00 -1.2871494068052155e+02 9.9590154824953842e+01 -6.8775157571663598e+01 -4.1135626336359845e+00 6.2471059029655656e+01 -5.9111535552585295e+01 3.8753281838882579e+01 -1.0736336748814745e+02 1.0276945708759564e+01 
        </Neuron>
      </Layer>
      <Layer Index="1" NNeurons="11">
        <Neuron NSynapses="1">
          1.8059603187467006e+00 
        </Neuron>
        <Neuron NSynapses="1">
          1.0017414475213251e+00 
        </Neuron>
        <Neuron NSynapses="1">
          -1.1469742863256021e+00 
        </Neuron>
        <Neuron NSynapses="1">
          -2.3386645370627326e-01 
        </Neuron>
        <Neuron NSynapses="1">
          1.3669494573710403e+00 
        </Neuron>
        <Neuron NSynapses="1">
          -1.2037844437830212e+00 
        </Neuron>
        <Neuron NSynapses="1">
          1.4302111199107852e+00 
        </Neuron>
        <Neuron NSynapses="1">
          2.8367810168878532e-01 
        </Neuron>
        <Neuron NSynapses="1">
          7.4245685816765739e-01 
        </Neuron>
        <Neuron NSynapses="1">
          2.8395775994149564e-01 
        </Neuron>
        <Neuron NSynapses="1">
          -7.8818533331751806e-01 
        </Neuron>
      </Layer>
      <Layer Index="2" NNeurons="1">
        <Neuron NSynapses="0"/>
      </Layer>
    </Layout>
  </Weights>
</MethodSetup>
