<?xml version="1.0"?>
<MethodSetup Method="MLP::MLP_1">
  <GeneralInfo>
    <Info name="TMVA Release" value="4.2.1 [262657]"/>
    <Info name="ROOT Release" value="6.12/07 [396295]"/>
    <Info name="Creator" value="addropul"/>
    <Info name="Date" value="Mon Feb 24 16:34:10 2020"/>
    <Info name="Host" value="Linux cmsbuild89.cern.ch 2.6.32-696.30.1.el6.x86_64 #1 SMP Tue May 22 06:09:36 CEST 2018 x86_64 x86_64 x86_64 GNU/Linux"/>
    <Info name="Dir" value="/afs/cern.ch/user/a/addropul/CMSSW_10_6_0_pre4/src/L1Trigger/Run3Ntuplizer/test/June_July_2019"/>
    <Info name="Training events" value="368224"/>
    <Info name="TrainingTime" value="1.37138565e+02"/>
    <Info name="AnalysisType" value="Classification"/>
  </GeneralInfo>
  <Options>
    <Option name="NCycles" modified="Yes">600</Option>
    <Option name="HiddenLayers" modified="Yes">N+5</Option>
    <Option name="NeuronType" modified="Yes">tanh</Option>
    <Option name="RandomSeed" modified="No">1</Option>
    <Option name="EstimatorType" modified="No">CE</Option>
    <Option name="NeuronInputType" modified="No">sum</Option>
    <Option name="V" modified="Yes">False</Option>
    <Option name="VerbosityLevel" modified="No">Default</Option>
    <Option name="VarTransform" modified="Yes">N</Option>
    <Option name="H" modified="Yes">True</Option>
    <Option name="CreateMVAPdfs" modified="No">False</Option>
    <Option name="IgnoreNegWeightsInTraining" modified="No">False</Option>
    <Option name="TrainingMethod" modified="No">BP</Option>
    <Option name="LearningRate" modified="No">2.000000e-02</Option>
    <Option name="DecayRate" modified="No">1.000000e-02</Option>
    <Option name="TestRate" modified="Yes">5</Option>
    <Option name="EpochMonitoring" modified="No">False</Option>
    <Option name="Sampling" modified="No">1.000000e+00</Option>
    <Option name="SamplingEpoch" modified="No">1.000000e+00</Option>
    <Option name="SamplingImportance" modified="No">1.000000e+00</Option>
    <Option name="SamplingTraining" modified="No">True</Option>
    <Option name="SamplingTesting" modified="No">False</Option>
    <Option name="ResetStep" modified="No">50</Option>
    <Option name="Tau" modified="No">3.000000e+00</Option>
    <Option name="BPMode" modified="No">sequential</Option>
    <Option name="BatchSize" modified="No">-1</Option>
    <Option name="ConvergenceImprove" modified="No">1.000000e-30</Option>
    <Option name="ConvergenceTests" modified="Yes">10</Option>
    <Option name="UseRegulator" modified="Yes">False</Option>
    <Option name="UpdateLimit" modified="No">10000</Option>
    <Option name="CalculateErrors" modified="No">False</Option>
    <Option name="WeightRange" modified="No">1.000000e+00</Option>
  </Options>
  <Variables NVar="5">
    <Variable VarIndex="0" Expression="l1Pt_1" Label="l1Pt_1" Title="l1Pt_1" Unit="" Internal="l1Pt_1" Type="F" Min="5.50000000e+00" Max="5.11500000e+02"/>
    <Variable VarIndex="1" Expression="l1Pt_2" Label="l1Pt_2" Title="l1Pt_2" Unit="" Internal="l1Pt_2" Type="F" Min="5.50000000e+00" Max="5.11500000e+02"/>
    <Variable VarIndex="2" Expression="l1DeltaEta" Label="l1DeltaEta" Title="l1DeltaEta" Unit="" Internal="l1DeltaEta" Type="F" Min="-9.32750034e+00" Max="1.01850004e+01"/>
    <Variable VarIndex="3" Expression="l1DeltaPhi" Label="l1DeltaPhi" Title="l1DeltaPhi" Unit="" Internal="l1DeltaPhi" Type="F" Min="-6.19119978e+00" Max="6.19119978e+00"/>
    <Variable VarIndex="4" Expression="l1Mass" Label="l1Mass" Title="l1Mass" Unit="" Internal="l1Mass" Type="F" Min="6.71710211e-07" Max="7.86377637e+03"/>
  </Variables>
  <Spectators NSpec="0"/>
  <Classes NClass="2">
    <Class Name="Signal" Index="0"/>
    <Class Name="Background" Index="1"/>
  </Classes>
  <Transformations NTransformations="1">
    <Transform Name="Normalize">
      <Selection>
        <Input NInputs="5">
          <Input Type="Variable" Label="l1Pt_1" Expression="l1Pt_1"/>
          <Input Type="Variable" Label="l1Pt_2" Expression="l1Pt_2"/>
          <Input Type="Variable" Label="l1DeltaEta" Expression="l1DeltaEta"/>
          <Input Type="Variable" Label="l1DeltaPhi" Expression="l1DeltaPhi"/>
          <Input Type="Variable" Label="l1Mass" Expression="l1Mass"/>
        </Input>
        <Output NOutputs="5">
          <Output Type="Variable" Label="l1Pt_1" Expression="l1Pt_1"/>
          <Output Type="Variable" Label="l1Pt_2" Expression="l1Pt_2"/>
          <Output Type="Variable" Label="l1DeltaEta" Expression="l1DeltaEta"/>
          <Output Type="Variable" Label="l1DeltaPhi" Expression="l1DeltaPhi"/>
          <Output Type="Variable" Label="l1Mass" Expression="l1Mass"/>
        </Output>
      </Selection>
      <Class ClassIndex="0">
        <Ranges>
          <Range Index="0" Min="5.5000000000000000e+00" Max="5.1150000000000000e+02"/>
          <Range Index="1" Min="5.5000000000000000e+00" Max="5.1150000000000000e+02"/>
          <Range Index="2" Min="-9.3275003433227539e+00" Max="1.0185000419616699e+01"/>
          <Range Index="3" Min="-6.1911997795104980e+00" Max="6.1911997795104980e+00"/>
          <Range Index="4" Min="6.7171021100875805e-07" Max="7.8637763671875000e+03"/>
        </Ranges>
      </Class>
      <Class ClassIndex="1">
        <Ranges>
          <Range Index="0" Min="5.5000000000000000e+00" Max="2.3600000000000000e+02"/>
          <Range Index="1" Min="5.5000000000000000e+00" Max="1.9850000000000000e+02"/>
          <Range Index="2" Min="-8.5900001525878906e+00" Max="9.3000001907348633e+00"/>
          <Range Index="3" Min="-6.1911997795104980e+00" Max="6.1911997795104980e+00"/>
          <Range Index="4" Min="7.7600577697012341e-07" Max="4.3956508789062500e+03"/>
        </Ranges>
      </Class>
      <Class ClassIndex="2">
        <Ranges>
          <Range Index="0" Min="5.5000000000000000e+00" Max="5.1150000000000000e+02"/>
          <Range Index="1" Min="5.5000000000000000e+00" Max="5.1150000000000000e+02"/>
          <Range Index="2" Min="-9.3275003433227539e+00" Max="1.0185000419616699e+01"/>
          <Range Index="3" Min="-6.1911997795104980e+00" Max="6.1911997795104980e+00"/>
          <Range Index="4" Min="6.7171021100875805e-07" Max="7.8637763671875000e+03"/>
        </Ranges>
      </Class>
    </Transform>
  </Transformations>
  <MVAPdfs/>
  <Weights>
    <Layout NLayers="3">
      <Layer Index="0" NNeurons="6">
        <Neuron NSynapses="10">
          -2.0695803043164581e+01 1.9899214198966030e+02 1.9700656622882180e+00 1.5259783203436450e+02 -1.2893909056392906e+02 -6.8402984251879928e+01 6.0207151161769119e-02 -8.0772646853876795e-01 -5.6612354804755647e+00 -1.5637041063936836e+00 
        </Neuron>
        <Neuron NSynapses="10">
          -5.0055457848125844e+00 5.4915200651982566e+01 2.7380704424145022e-03 3.3075051968880913e+01 -3.4141553441745081e+01 -1.9794063086983371e+01 2.2951501768748455e+00 -2.6410106178234507e+00 -4.2416481930717502e+00 3.7947562474963936e+00 
        </Neuron>
        <Neuron NSynapses="10">
          -1.2069946222938714e+01 3.6814670117772446e+00 3.2003178947466062e+00 -6.8582929874866956e+00 1.6806461032482107e+00 -6.7487650387219378e-01 2.0790004236399797e+00 -2.4312107051795925e-01 -9.1850011652680017e+00 4.9518408111648798e-01 
        </Neuron>
        <Neuron NSynapses="10">
          -2.8976084568968648e+01 -3.7778146247110032e+00 2.6450873407017141e+00 -9.8026796603150768e+00 -1.4002833639654000e+00 1.6466014800478428e+00 -3.7912368689602016e+00 4.6198094357355792e+00 -9.3399817485673591e+00 6.0627276171130138e+00 
        </Neuron>
        <Neuron NSynapses="10">
          5.2343931386409208e+00 -4.1803723075495149e+01 1.3433286504362836e+00 -1.9326854847993409e+00 1.7688548102309589e+01 1.7162783709041335e+01 2.8706056693356556e+00 -3.6917125129525621e+00 -4.3389263848325728e+00 4.2298303729241526e+00 
        </Neuron>
        <Neuron NSynapses="10">
          -1.6224520142936228e+01 1.8560858306940702e+02 -3.6269681322220118e+00 1.0264629420515328e+02 -1.0456677566893555e+02 -5.7050959971401582e+01 -6.4332794896145504e+00 5.8828471256839574e+00 9.5655332902522172e+00 -6.6506692062520143e+00 
        </Neuron>
      </Layer>
      <Layer Index="1" NNeurons="11">
        <Neuron NSynapses="1">
          -5.5186721994141064e-01 
        </Neuron>
        <Neuron NSynapses="1">
          1.7134911344004424e+00 
        </Neuron>
        <Neuron NSynapses="1">
          -1.5124081834299561e+00 
        </Neuron>
        <Neuron NSynapses="1">
          7.0259708949661726e-01 
        </Neuron>
        <Neuron NSynapses="1">
          -1.7717732272112767e+00 
        </Neuron>
        <Neuron NSynapses="1">
          -4.9328980416367435e-01 
        </Neuron>
        <Neuron NSynapses="1">
          -1.8127961479174006e+00 
        </Neuron>
        <Neuron NSynapses="1">
          2.7812501786516002e+00 
        </Neuron>
        <Neuron NSynapses="1">
          -2.2332484897313281e+00 
        </Neuron>
        <Neuron NSynapses="1">
          -3.0200336901770203e-01 
        </Neuron>
        <Neuron NSynapses="1">
          -2.5301513292317312e+00 
        </Neuron>
      </Layer>
      <Layer Index="2" NNeurons="1">
        <Neuron NSynapses="0"/>
      </Layer>
    </Layout>
  </Weights>
</MethodSetup>
